{"learner":{"attributes":{"scikit_learn":"{\"_estimator_type\": \"classifier\"}"},"feature_names":["temperature","humidity","wind_speed","rainfall","ndvi","elevation"],"feature_types":["float","float","float","float","float","float"],"gradient_booster":{"model":{"cats":{"enc":[],"feature_segments":[],"sorted_idx":[]},"gbtree_model_param":{"num_parallel_tree":"1","num_trees":"100"},"iteration_indptr":[0,1,2,3,4,5,6,7,8,9,10,11,12,13,14,15,16,17,18,19,20,21,22,23,24,25,26,27,28,29,30,31,32,33,34,35,36,37,38,39,40,41,42,43,44,45,46,47,48,49,50,51,52,53,54,55,56,57,58,59,60,61,62,63,64,65,66,67,68,69,70,71,72,73,74,75,76,77,78,79,80,81,82,83,84,85,86,87,88,89,90,91,92,93,94,95,96,97,98,99,100],"tree_info":[0,0,0,0,0,0,0,0,0,0,0,0,0,0,0,0,0,0,0,0,0,0,0,0,0,0,0,0,0,0,0,0,0,0,0,0,0,0,0,0,0,0,0,0,0,0,0,0,0,0,0,0,0,0,0,0,0,0,0,0,0,0,0,0,0,0,0,0,0,0,0,0,0,0,0,0,0,0,0,0,0,0,0,0,0,0,0,0,0,0,0,0,0,0,0,0,0,0,0,0],"trees":[{"base_weights":[-1.2573689E-7,-4.3269473E-1,5.1117473E0,1.9416238E0,-7.594666E-1,8.6437235E0,2.018171E0,-1.6792409E-1,5.088897E0,-9.77534E-1,4.9562666E-1,2.775723E-1,9.669814E-1,-1.5882029E-1,3.2024927E0,-8.4025407E-1,9.273279E-1,2.1504653E0,7.798488E-1,-3.817939E-1,-1.0247891E0,-3.9412838E-1,2.5682795E0,6.7942835E-2,-5.845512E-1,4.5520577E0,8.156079E-1,-9.8513424E-2,1.38545185E-2,2.1196191E-1,-4.123712E-2,8.664986E-2,4.7359642E-1,-7.7375636E-2,1.18451014E-1,-1.0351926E-1,-3.0754754E-2,1.5627794E-1,-7.543688E-2,4.1636594E-2,4.5199576E-1,-7.379489E-2,-6.1255805E-3,7.771428E-2,6.2351865E-1,-5.8503013E-2,1.541582E-1],"categories":[],"categories_nodes":[],"categories_segments":[],"categories_sizes":[],"default_left":[0,0,0,0,0,0,0,0,0,0,0,0,0,0,0,0,0,0,0,0,0,0,0,0,0,0,0,0,0,0,0,0,0,0,0,0,0,0,0,0,0,0,0,0,0,0,0],"id":0,"left_children":[1,3,5,7,9,11,13,15,17,19,21,-1,-1,23,25,27,29,31,-1,33,35,37,39,-1,41,43,45,-1,-1,-1,-1,-1,-1,-1,-1,-1,-1,-1,-1,-1,-1,-1,-1,-1,-1,-1,-1],"loss_changes":[6.182053E2,2.0140414E2,2.2088843E2,2.0969864E2,6.2676727E1,3.2647766E1,3.3851948E1,1.5359795E1,8.398813E1,5.068268E0,6.426669E1,0E0,0E0,2.3632824E0,2.3420357E1,1.9507504E0,1.3663542E1,2.063424E1,0E0,1.0645049E1,1.0179291E0,1.8707678E1,4.1943413E1,0E0,2.9123735E-1,2.795517E1,5.234191E0,0E0,0E0,0E0,0E0,0E0,0E0,0E0,0E0,0E0,0E0,0E0,0E0,0E0,0E0,0E0,0E0,0E0,0E0,0E0,0E0],"parents":[2147483647,0,0,1,1,2,2,3,3,4,4,5,5,6,6,7,7,8,8,9,9,10,10,13,13,14,14,15,15,16,16,17,17,19,19,20,20,21,21,22,22,24,24,25,25,26,26],"right_children":[2,4,6,8,10,12,14,16,18,20,22,-1,-1,24,26,28,30,32,-1,34,36,38,40,-1,42,44,46,-1,-1,-1,-1,-1,-1,-1,-1,-1,-1,-1,-1,-1,-1,-1,-1,-1,-1,-1,-1],"split_conditions":[3.9558224E1,2.604084E1,4.6477753E1,2.703236E1,3.308919E1,4.894094E0,1.2952928E1,2.1921915E1,5.5204344E-1,3.209291E1,7.0396835E-1,2.775723E-1,9.669814E-1,2.3511117E0,6.3019314E1,8.8578236E-1,1.7616539E1,3.580056E1,7.798488E-1,2.912781E1,9.8105484E-1,3.6358505E1,1.5891982E1,6.7942835E-2,4.396793E1,4.1654743E1,4.0571058E-1,-9.8513424E-2,1.38545185E-2,2.1196191E-1,-4.123712E-2,8.664986E-2,4.7359642E-1,-7.7375636E-2,1.18451014E-1,-1.0351926E-1,-3.0754754E-2,1.5627794E-1,-7.543688E-2,4.1636594E-2,4.5199576E-1,-7.379489E-2,-6.1255805E-3,7.771428E-2,6.2351865E-1,-5.8503013E-2,1.541582E-1],"split_indices":[0,1,1,0,0,2,2,0,4,1,4,0,0,2,1,4,1,0,0,0,4,1,2,0,0,0,4,0,0,0,0,0,0,0,0,0,0,0,0,0,0,0,0,0,0,0,0],"split_type":[0,0,0,0,0,0,0,0,0,0,0,0,0,0,0,0,0,0,0,0,0,0,0,0,0,0,0,0,0,0,0,0,0,0,0,0,0,0,0,0,0,0,0,0,0,0,0],"sum_hessian":[2.7750003E2,2.5668753E2,2.0812502E1,3.045563E1,2.262319E2,8.880001E0,1.1932502E1,1.8800627E1,1.1655002E1,1.929319E2,3.3300003E1,1.8731252E0,7.006876E0,4.5093756E0,7.4231257E0,1.1793752E1,7.006876E0,6.4518757E0,5.2031255E0,1.48462515E1,1.7808565E2,2.3865004E1,9.435001E0,1.3181251E0,3.1912503E0,4.1625004E0,3.2606254E0,1.0267501E1,1.5262501E0,3.3993754E0,3.6075006E0,5.2031255E0,1.2487502E0,1.2279376E1,2.5668752E0,1.7510252E2,2.9831254E0,3.1912503E0,2.0673752E1,5.0643754E0,4.3706255E0,2.1506252E0,1.0406251E0,1.7343752E0,2.4281254E0,1.1793752E0,2.0812502E0],"tree_param":{"num_deleted":"0","num_feature":"6","num_nodes":"47","size_leaf_vector":"1"}},{"base_weights":[-1.1479846E-2,-7.153178E-1,1.983827E0,7.5744176E-1,-9.6614516E-1,3.7943163E0,6.704569E-1,-6.2679386E-1,2.0628598E0,-3.7758985E-1,-1.0118375E0,1.5297182E0,4.2624626E0,-3.7830442E-2,2.5057778E0,5.0214463E-1,-8.4958416E-1,-1.1486673E-1,3.1343083E0,-7.921452E-1,7.040644E-1,-1.02303796E-1,-2.904394E-1,2.2986608E0,8.093513E-2,3.0948796E0,5.1162755E-1,-5.7808286E-1,1.8183377E0,2.3641527E-1,3.4046495E0,-5.4802835E-2,1.2567236E-1,-9.7218625E-2,-3.1240672E-2,8.9585744E-2,-8.283635E-2,4.3995115E-1,1.782784E-1,-9.587784E-2,9.715294E-3,-6.8146445E-2,1.7662331E-1,-7.0568964E-2,4.5020863E-2,2.2621082E-2,3.1143278E-1,-6.497671E-2,8.937822E-2,3.5994017E-1,8.1702605E-2,-7.716806E-2,6.480732E-2,2.5046042E-1,-3.246958E-2,1.06994584E-1,-6.870576E-2,8.719363E-2,4.35275E-1],"categories":[],"categories_nodes":[],"categories_segments":[],"categories_sizes":[],"default_left":[0,0,0,0,0,0,0,0,0,0,0,0,0,0,0,0,0,0,0,0,0,0,0,0,0,0,0,0,0,0,0,0,0,0,0,0,0,0,0,0,0,0,0,0,0,0,0,0,0,0,0,0,0,0,0,0,0,0,0],"id":1,"left_children":[1,3,5,7,9,11,13,15,17,19,21,23,25,27,29,31,33,35,37,39,41,-1,43,45,47,49,-1,51,53,55,57,-1,-1,-1,-1,-1,-1,-1,-1,-1,-1,-1,-1,-1,-1,-1,-1,-1,-1,-1,-1,-1,-1,-1,-1,-1,-1,-1,-1],"loss_changes":[3.937467E2,7.729142E1,1.7130548E2,5.680562E1,4.3921204E0,2.5840149E1,5.675653E1,4.3696966E0,3.7794792E1,7.007947E0,1.0291443E0,7.3769493E0,8.824219E0,3.3577763E1,2.3984215E1,3.234364E0,5.830622E-1,5.253002E0,1.0604248E1,1.7039013E0,7.8482475E0,0E0,1.519003E0,6.730837E0,2.5944545E0,1.1974915E1,0E0,6.6440525E0,1.192226E1,4.2162023E0,1.692743E1,0E0,0E0,0E0,0E0,0E0,0E0,0E0,0E0,0E0,0E0,0E0,0E0,0E0,0E0,0E0,0E0,0E0,0E0,0E0,0E0,0E0,0E0,0E0,0E0,0E0,0E0,0E0,0E0],"parents":[2147483647,0,0,1,1,2,2,3,3,4,4,5,5,6,6,7,7,8,8,9,9,10,10,11,11,12,12,13,13,14,14,15,15,16,16,17,17,18,18,19,19,20,20,22,22,23,23,24,24,25,25,27,27,28,28,29,29,30,30],"right_children":[2,4,6,8,10,12,14,16,18,20,22,24,26,28,30,32,34,36,38,40,42,-1,44,46,48,50,-1,52,54,56,58,-1,-1,-1,-1,-1,-1,-1,-1,-1,-1,-1,-1,-1,-1,-1,-1,-1,-1,-1,-1,-1,-1,-1,-1,-1,-1,-1,-1],"split_conditions":[3.308919E1,2.644477E1,4.128471E1,2.4389244E1,3.209291E1,2.7686092E-1,4.1334316E1,7.862218E0,3.792489E-1,2.8017E1,9.8105484E-1,3.054471E1,1.6667936E1,7.862988E-1,4.0571058E-1,1.6960516E1,2.1921915E1,1.0542379E3,1.5104793E1,2.3340555E1,3.2910928E-1,-1.02303796E-1,2.7222898E1,5.020591E0,1.7111248E1,3.5848953E1,5.1162755E-1,2.7207151E1,6.7157974E1,5.4150845E1,1.3666097E1,-5.4802835E-2,1.2567236E-1,-9.7218625E-2,-3.1240672E-2,8.9585744E-2,-8.283635E-2,4.3995115E-1,1.782784E-1,-9.587784E-2,9.715294E-3,-6.8146445E-2,1.7662331E-1,-7.0568964E-2,4.5020863E-2,2.2621082E-2,3.1143278E-1,-6.497671E-2,8.937822E-2,3.5994017E-1,8.1702605E-2,-7.716806E-2,6.480732E-2,2.5046042E-1,-3.246958E-2,1.06994584E-1,-6.870576E-2,8.719363E-2,4.35275E-1],"split_indices":[0,1,1,0,1,4,0,1,4,0,4,1,2,4,4,0,0,5,1,2,4,0,0,3,2,1,0,2,1,1,2,0,0,0,0,0,0,0,0,0,0,0,0,0,0,0,0,0,0,0,0,0,0,0,0,0,0,0,0],"split_type":[0,0,0,0,0,0,0,0,0,0,0,0,0,0,0,0,0,0,0,0,0,0,0,0,0,0,0,0,0,0,0,0,0,0,0,0,0,0,0,0,0,0,0,0,0,0,0,0,0,0,0,0,0,0,0,0,0,0,0],"sum_hessian":[2.7836148E2,2.0624924E2,7.211224E1,2.9720778E1,1.7652846E2,2.9524094E1,4.2588146E1,1.467723E1,1.5043549E1,1.3384804E1,1.6314366E2,5.788853E0,2.3735239E1,3.1435818E1,1.1152329E1,2.212419E0,1.246481E1,5.255171E0,9.788378E0,9.869766E0,3.515037E0,1.6023769E2,2.905963E0,3.3984888E0,2.3903646E0,1.1978923E1,1.1756317E1,2.4882214E1,6.5536046E0,3.5224037E0,7.6299257E0,1.0394754E0,1.1729436E0,9.489241E0,2.97557E0,2.0688689E0,3.186302E0,3.8908308E0,5.897547E0,8.246449E0,1.6233169E0,1.6808721E0,1.8341651E0,1.8922551E0,1.013708E0,1.3205534E0,2.0779352E0,1.3644403E0,1.0259243E0,9.3318405E0,2.6470823E0,2.1809381E1,3.0728319E0,4.836187E0,1.7174177E0,1.767994E0,1.7544097E0,2.6011078E0,5.0288177E0],"tree_param":{"num_deleted":"0","num_feature":"6","num_nodes":"59","size_leaf_vector":"1"}},{"base_weights":[-1.39126405E-2,-6.899185E-1,1.5736432E0,6.5653235E-1,-9.503128E-1,2.7010367E0,5.8369833E-1,-6.000245E-1,1.6508166E0,-5.2661353E-1,-1.0224094E0,1.3167666E0,2.9318056E0,-3.371992E-2,1.9459575E0,4.5927328E-1,-8.290319E-1,-1.05805084E-1,2.3621879E0,-7.269962E-1,1.0663873E0,-1.0361544E0,-3.2828885E-1,1.9924915E0,1.8761182E-1,1.4841388E0,3.1269255E-1,-5.489723E-1,1.4574307E0,2.3367E0,-3.7916083E-2,-1.6720055E-2,9.391724E-2,-9.578988E-2,-2.9503463E-2,7.9185806E-2,-8.090328E-2,-1.3773738E-2,2.606947E-1,-9.932878E-2,-2.8249225E-2,-1.6708663E-2,1.9239907E-1,-4.217831E-2,-1.0431683E-1,-7.2747014E-2,4.6236996E-2,2.322931E-2,2.615838E-1,-5.53737E-2,6.514587E-2,2.2017658E-1,-4.6524736E-3,-7.4574135E-2,5.7404526E-2,-3.602149E-2,2.0112419E-1,9.7593315E-2,3.2001445E-1],"categories":[],"categories_nodes":[],"categories_segments":[],"categories_sizes":[],"default_left":[0,0,0,0,0,0,0,0,0,0,0,0,0,0,0,0,0,0,0,0,0,0,0,0,0,0,0,0,0,0,0,0,0,0,0,0,0,0,0,0,0,0,0,0,0,0,0,0,0,0,0,0,0,0,0,0,0,0,0],"id":2,"left_children":[1,3,5,7,9,11,13,15,17,19,21,23,25,27,29,31,33,35,37,39,41,43,45,47,49,51,-1,53,55,57,-1,-1,-1,-1,-1,-1,-1,-1,-1,-1,-1,-1,-1,-1,-1,-1,-1,-1,-1,-1,-1,-1,-1,-1,-1,-1,-1,-1,-1],"loss_changes":[2.9758984E2,6.880518E1,9.085007E1,4.1101967E1,4.451828E0,8.420288E0,3.822671E1,3.9990697E0,2.2979923E1,9.016422E0,9.816284E-1,5.2025414E0,4.436493E0,2.5543015E1,1.3757351E1,1.1476147E0,5.858736E-1,4.5545216E0,8.307121E0,2.5042772E0,3.8018095E0,1.4343262E-1,1.6474088E0,4.2950706E0,1.6812592E0,6.38585E0,0E0,5.87739E0,9.324869E0,1.1291893E1,0E0,0E0,0E0,0E0,0E0,0E0,0E0,0E0,0E0,0E0,0E0,0E0,0E0,0E0,0E0,0E0,0E0,0E0,0E0,0E0,0E0,0E0,0E0,0E0,0E0,0E0,0E0,0E0,0E0],"parents":[2147483647,0,0,1,1,2,2,3,3,4,4,5,5,6,6,7,7,8,8,9,9,10,10,11,11,12,12,13,13,14,14,15,15,16,16,17,17,18,18,19,19,20,20,21,21,22,22,23,23,24,24,25,25,27,27,28,28,29,29],"right_children":[2,4,6,8,10,12,14,16,18,20,22,24,26,28,30,32,34,36,38,40,42,44,46,48,50,52,-1,54,56,58,-1,-1,-1,-1,-1,-1,-1,-1,-1,-1,-1,-1,-1,-1,-1,-1,-1,-1,-1,-1,-1,-1,-1,-1,-1,-1,-1,-1,-1],"split_conditions":[3.308919E1,2.644477E1,4.128471E1,2.4389244E1,3.67795E1,2.7686092E-1,4.1334316E1,7.862218E0,3.792489E-1,3.0798573E1,2.0455929E1,1.0798921E3,5.8273835E0,7.862988E-1,7.645406E1,6.015537E-1,2.1921915E1,1.0542379E3,2.3347086E2,2.3398672E1,1.7893542E3,6.103181E1,6.948371E-1,3.4368613E2,3.6008213E1,3.3150911E0,3.1269255E-1,2.7207151E1,8.385121E0,1.6317501E1,-3.7916083E-2,-1.6720055E-2,9.391724E-2,-9.578988E-2,-2.9503463E-2,7.9185806E-2,-8.090328E-2,-1.3773738E-2,2.606947E-1,-9.932878E-2,-2.8249225E-2,-1.6708663E-2,1.9239907E-1,-4.217831E-2,-1.0431683E-1,-7.2747014E-2,4.6236996E-2,2.322931E-2,2.615838E-1,-5.53737E-2,6.514587E-2,2.2017658E-1,-4.6524736E-3,-7.4574135E-2,5.7404526E-2,-3.602149E-2,2.0112419E-1,9.7593315E-2,3.2001445E-1],"split_indices":[0,1,1,0,1,4,0,1,4,0,3,5,2,4,1,4,0,5,5,0,5,5,4,5,0,2,0,2,2,2,0,0,0,0,0,0,0,0,0,0,0,0,0,0,0,0,0,0,0,0,0,0,0,0,0,0,0,0,0],"split_type":[0,0,0,0,0,0,0,0,0,0,0,0,0,0,0,0,0,0,0,0,0,0,0,0,0,0,0,0,0,0,0,0,0,0,0,0,0,0,0,0,0,0,0,0,0,0,0,0,0,0,0,0,0,0,0,0,0,0,0],"sum_hessian":[2.7528116E2,1.9346584E2,8.181532E1,3.1105211E1,1.6236063E2,3.744398E1,4.437134E1,1.3915545E1,1.7189667E1,2.4817392E1,1.3754323E2,6.308482E0,3.1135498E1,3.1203978E1,1.3167366E1,2.2948728E0,1.1620672E1,5.2000966E0,1.198957E1,2.2527325E1,2.290068E0,1.343893E2,3.1539328E0,3.468329E0,2.840153E0,4.7202783E0,2.641522E1,2.3660255E1,7.5437217E0,1.1268657E1,1.8987094E0,1.2780554E0,1.0168172E0,8.722006E0,2.8986661E0,2.2288973E0,2.971199E0,1.1081705E0,1.0881399E1,1.3315645E1,9.2116785E0,1.2694352E0,1.0206329E0,2.2070007E0,1.321823E2,2.1489217E0,1.005011E0,1.2660179E0,2.202311E0,1.0185118E0,1.8216412E0,2.9151285E0,1.8051499E0,2.0418573E1,3.241682E0,1.8433369E0,5.7003846E0,5.201501E0,6.0671554E0],"tree_param":{"num_deleted":"0","num_feature":"6","num_nodes":"59","size_leaf_vector":"1"}},{"base_weights":[-1.5786646E-2,-7.8201425E-1,1.1070408E0,8.0620235E-1,-9.361322E-1,2.285992E0,3.8015637E-1,-5.405512E-1,1.5022904E0,-5.1630175E-1,-1.0113411E0,4.5395085E-1,2.4697897E0,-2.1489984E-1,1.8019599E0,-8.442246E-2,4.5583595E-2,-5.7475027E-2,1.7991264E0,-8.879615E-1,2.781315E-1,-1.0184852E0,-4.1543138E-1,-2.8946277E-1,1.4952868E-1,2.9711002E-1,1.9340936E0,-6.5404314E-1,6.2262774E-1,4.1225725E-1,2.256753E0,9.18543E-2,2.592067E-1,-6.1802897E-3,-9.3843885E-2,-3.8148753E-2,1.8999307E-1,-4.4686317E-2,-1.0259346E-1,-5.7295687E-2,-3.8114933E-3,4.251848E-2,-7.0529014E-2,1.1530399E-1,2.4581234E-1,-8.710598E-2,1.2977984E-3,1.6972998E-2,2.151274E-1,-6.013764E-2,1.4840339E-1,1.0142153E-1,2.6235992E-1],"categories":[],"categories_nodes":[],"categories_segments":[],"categories_sizes":[],"default_left":[0,0,0,0,0,0,0,0,0,0,0,0,0,0,0,0,0,0,0,0,0,0,0,0,0,0,0,0,0,0,0,0,0,0,0,0,0,0,0,0,0,0,0,0,0,0,0,0,0,0,0,0,0],"id":3,"left_children":[1,3,5,7,9,11,13,15,17,19,21,23,25,27,29,-1,-1,-1,31,33,35,37,39,41,-1,-1,43,45,47,49,51,-1,-1,-1,-1,-1,-1,-1,-1,-1,-1,-1,-1,-1,-1,-1,-1,-1,-1,-1,-1,-1,-1],"loss_changes":[2.3464227E2,4.0431305E1,9.393625E1,1.4757174E1,4.1578827E0,1.3019485E1,5.930217E1,2.1410177E0,7.2434196E0,7.4989142E0,1.0759735E-1,4.345451E0,4.44252E0,1.8790813E1,1.2122093E1,0E0,0E0,0E0,3.9410934E0,6.4975643E-1,9.91382E0,6.31485E-2,1.6631866E-1,1.425176E0,0E0,0E0,5.8453293E0,4.8284445E0,1.1892622E1,7.7536163E0,4.3296356E0,0E0,0E0,0E0,0E0,0E0,0E0,0E0,0E0,0E0,0E0,0E0,0E0,0E0,0E0,0E0,0E0,0E0,0E0,0E0,0E0,0E0,0E0],"parents":[2147483647,0,0,1,1,2,2,3,3,4,4,5,5,6,6,7,7,8,8,9,9,10,10,11,11,12,12,13,13,14,14,18,18,19,19,20,20,21,21,22,22,23,23,26,26,27,27,28,28,29,29,30,30],"right_children":[2,4,6,8,10,12,14,16,18,20,22,24,26,28,30,-1,-1,-1,32,34,36,38,40,42,-1,-1,44,46,48,50,52,-1,-1,-1,-1,-1,-1,-1,-1,-1,-1,-1,-1,-1,-1,-1,-1,-1,-1,-1,-1,-1,-1],"split_conditions":[3.056553E1,1.7616539E1,3.5848953E1,2.1733038E1,3.209291E1,1.4436457E-1,4.1334316E1,7.402843E-1,5.092631E0,2.6680153E1,9.8105484E-1,3.881454E1,2.3769018E1,7.0396835E-1,4.0571058E-1,-8.442246E-2,4.5583595E-2,-5.7475027E-2,6.9736266E-1,3.3343807E-1,2.3109138E1,6.103181E1,2.2139957E1,4.0434096E-2,1.4952868E-1,2.9711002E-1,5.988424E-1,3.727669E1,2.5685495E1,1.9838411E1,1.3666097E1,9.18543E-2,2.592067E-1,-6.1802897E-3,-9.3843885E-2,-3.8148753E-2,1.8999307E-1,-4.4686317E-2,-1.0259346E-1,-5.7295687E-2,-3.8114933E-3,4.251848E-2,-7.0529014E-2,1.1530399E-1,2.4581234E-1,-8.710598E-2,1.2977984E-3,1.6972998E-2,2.151274E-1,-6.013764E-2,1.4840339E-1,1.0142153E-1,2.6235992E-1],"split_indices":[0,1,1,0,1,4,0,4,2,0,4,0,1,4,4,0,0,0,4,3,2,5,0,4,0,0,4,0,2,2,2,0,0,0,0,0,0,0,0,0,0,0,0,0,0,0,0,0,0,0,0,0,0],"split_type":[0,0,0,0,0,0,0,0,0,0,0,0,0,0,0,0,0,0,0,0,0,0,0,0,0,0,0,0,0,0,0,0,0,0,0,0,0,0,0,0,0,0,0,0,0,0,0,0,0,0,0,0,0],"sum_hessian":[2.707253E2,1.6109569E2,1.0962963E2,1.3875435E1,1.4722026E2,4.0994602E1,6.8635025E1,4.804122E0,9.071313E0,2.3561314E1,1.2365894E2,4.0541296E0,3.694047E1,4.898329E1,1.9651735E1,3.7989986E0,1.0051235E0,1.01723E0,8.054083E0,1.5971593E1,7.58972E0,1.21493286E2,2.1656547E0,2.7867124E0,1.267417E0,1.673419E1,2.0206282E1,3.2277966E1,1.6705324E1,5.315559E0,1.4336177E1,4.838826E0,3.2152565E0,1.0477365E0,1.4923857E1,5.938987E0,1.650733E0,2.3474996E0,1.1914579E2,1.1620194E0,1.0036352E0,1.0167707E0,1.7699418E0,9.398451E0,1.0807831E1,2.4123459E1,8.154509E0,1.3744286E1,2.961038E0,2.9574478E0,2.3581111E0,4.125946E0,1.0210231E1],"tree_param":{"num_deleted":"0","num_feature":"6","num_nodes":"53","size_leaf_vector":"1"}},{"base_weights":[-1.5214263E-2,-7.600313E-1,9.55309E-1,7.105197E-1,-9.2057514E-1,1.6258452E0,7.7035144E-2,-5.160104E-1,1.2750043E0,-4.8851883E-1,-1.0012066E0,1.1414706E0,2.3334224E0,-7.5143516E-1,8.2616395E-1,-8.266853E-2,4.2415574E-2,6.410721E-1,2.1701594E-1,-6.9589967E-1,8.437405E-1,-1.0090595E0,-3.9142787E-1,7.0943147E-1,2.2510693E0,7.075465E-2,2.3792592E-1,-8.489806E-1,2.0079854E-1,1.3313695E0,-8.686307E-2,9.840861E-2,-3.8840737E-2,-8.4488995E-2,1.7795684E-2,-5.8081087E-2,1.8088458E-1,-4.161419E-2,-1.0171413E-1,-3.0845036E-3,-5.500386E-2,-3.761096E-2,1.1977512E-1,2.6061803E-2,2.4671721E-1,-9.568469E-2,-3.115852E-2,-5.488723E-2,8.3452195E-2,1.6081193E-3,1.7770585E-1,-3.929764E-2,7.301937E-2],"categories":[],"categories_nodes":[],"categories_segments":[],"categories_sizes":[],"default_left":[0,0,0,0,0,0,0,0,0,0,0,0,0,0,0,0,0,0,0,0,0,0,0,0,0,0,0,0,0,0,0,0,0,0,0,0,0,0,0,0,0,0,0,0,0,0,0,0,0,0,0,0,0],"id":4,"left_children":[1,3,5,7,9,11,13,15,17,19,21,23,25,27,29,-1,-1,31,-1,33,35,37,39,41,43,-1,-1,45,47,49,51,-1,-1,-1,-1,-1,-1,-1,-1,-1,-1,-1,-1,-1,-1,-1,-1,-1,-1,-1,-1,-1,-1],"loss_changes":[1.9283456E2,3.628492E1,6.8094E1,1.1333506E1,4.2662964E0,1.983287E1,3.239752E1,1.9780432E0,4.7644005E0,7.058008E0,1.5130615E-1,1.8020844E1,2.3300171E-1,2.477438E0,1.27378025E1,0E0,0E0,3.1258724E0,0E0,2.8602915E0,6.0091767E0,1.1339569E-1,1.594303E-1,1.683786E1,4.092102E0,0E0,0E0,1.0188675E0,1.9386595E0,1.0334255E1,2.959761E0,0E0,0E0,0E0,0E0,0E0,0E0,0E0,0E0,0E0,0E0,0E0,0E0,0E0,0E0,0E0,0E0,0E0,0E0,0E0,0E0,0E0,0E0],"parents":[2147483647,0,0,1,1,2,2,3,3,4,4,5,5,6,6,7,7,8,8,9,9,10,10,11,11,12,12,13,13,14,14,17,17,19,19,20,20,21,21,22,22,23,23,24,24,27,27,28,28,29,29,30,30],"right_children":[2,4,6,8,10,12,14,16,18,20,22,24,26,28,30,-1,-1,32,-1,34,36,38,40,42,44,-1,-1,46,48,50,52,-1,-1,-1,-1,-1,-1,-1,-1,-1,-1,-1,-1,-1,-1,-1,-1,-1,-1,-1,-1,-1,-1],"split_conditions":[3.056553E1,1.7616539E1,4.4977642E1,2.1733038E1,3.209291E1,7.0396835E-1,3.7024513E1,7.402843E-1,7.718631E-1,2.77103E1,2.1225613E1,2.253601E1,6.8811667E-1,9.443874E-1,6.3019314E1,-8.266853E-2,4.2415574E-2,2.8229746E1,2.1701594E-1,2.912781E1,2.2401999E1,6.103181E1,1.6344912E3,3.4753124E1,1.0822042E-1,7.075465E-2,2.3792592E-1,3.5683792E1,3.331617E1,1.2309589E1,4.464725E1,9.840861E-2,-3.8840737E-2,-8.4488995E-2,1.7795684E-2,-5.8081087E-2,1.8088458E-1,-4.161419E-2,-1.0171413E-1,-3.0845036E-3,-5.500386E-2,-3.761096E-2,1.1977512E-1,2.6061803E-2,2.4671721E-1,-9.568469E-2,-3.115852E-2,-5.488723E-2,8.3452195E-2,1.6081193E-3,1.7770585E-1,-3.929764E-2,7.301937E-2],"split_indices":[0,1,1,0,1,4,0,4,4,2,3,2,2,4,1,0,0,0,0,0,0,5,5,0,4,0,0,0,0,2,0,0,0,0,0,0,0,0,0,0,0,0,0,0,0,0,0,0,0,0,0,0,0],"split_type":[0,0,0,0,0,0,0,0,0,0,0,0,0,0,0,0,0,0,0,0,0,0,0,0,0,0,0,0,0,0,0,0,0,0,0,0,0,0,0,0,0,0,0,0,0,0,0,0,0,0,0,0,0],"sum_hessian":[2.647609E2,1.4992192E2,1.1483898E2,1.441919E1,1.3550273E2,6.4638336E1,5.020065E1,4.571646E0,9.847544E0,2.242092E1,1.130818E2,3.9922466E1,2.4715866E1,2.3836502E1,2.6364147E1,3.5268977E0,1.0447487E0,6.7695975E0,3.0779464E0,1.9814266E1,2.6066544E0,1.10997536E2,2.0842662E0,2.9914259E1,1.0008209E1,1.1283487E0,2.3587519E1,2.1719973E1,2.1165302E0,1.6677685E1,9.686462E0,5.1108108E0,1.6587864E0,1.6956392E1,2.857873E0,1.2135594E0,1.393095E0,2.1984599E0,1.0879908E2,1.0016356E0,1.0826306E0,9.352753E0,2.0561504E1,1.1962187E0,8.811991E0,1.7439066E1,4.280906E0,1.0309033E0,1.0856268E0,4.4832096E0,1.2194474E1,7.4240494E0,2.2624135E0],"tree_param":{"num_deleted":"0","num_feature":"6","num_nodes":"53","size_leaf_vector":"1"}},{"base_weights":[-1.577537E-2,-7.37905E-1,8.3031523E-1,6.3256466E-1,-9.0482473E-1,1.4618635E0,1.64614E-1,-4.923889E-1,1.1019349E0,-4.9411157E-1,-9.9928015E-1,2.3748334E-1,1.2355691E0,-4.9274457E-1,9.0471065E-1,-8.127266E-2,4.367524E-2,-5.731077E-2,1.3192327E0,-8.810956E-1,2.8784102E-1,-1.0082039E0,-3.3103894E-2,8.1228E-1,1.815692E0,-9.119444E-1,2.6251692E-1,-1.05233155E-1,1.251388E0,-6.004903E-3,1.4732282E-1,-5.9517543E-3,-9.306115E-2,-5.1960476E-2,1.1518663E-1,-4.0002964E-2,-1.01738706E-1,5.014959E-2,2.2416781E-1,1.2584858E-2,1.9285713E-1,-9.544472E-2,-4.996919E-3,-3.4319025E-2,1.5994658E-1,3.568639E-2,-7.867024E-2,1.6265962E-1,2.027783E-2],"categories":[],"categories_nodes":[],"categories_segments":[],"categories_sizes":[],"default_left":[0,0,0,0,0,0,0,0,0,0,0,0,0,0,0,0,0,0,0,0,0,0,0,0,0,0,0,0,0,0,0,0,0,0,0,0,0,0,0,0,0,0,0,0,0,0,0,0,0],"id":5,"left_children":[1,3,5,7,9,11,13,15,17,19,21,-1,23,25,27,-1,-1,-1,29,31,33,35,-1,37,39,41,43,45,47,-1,-1,-1,-1,-1,-1,-1,-1,-1,-1,-1,-1,-1,-1,-1,-1,-1,-1,-1,-1],"loss_changes":[1.592738E2,3.2743286E1,5.022991E1,8.91567E0,4.3855743E0,9.766861E0,2.9427248E1,1.9501959E0,4.941102E0,7.9685755E0,2.70195E-1,0E0,1.1134697E1,1.0432827E1,1.00662155E1,0E0,0E0,0E0,2.3145466E0,6.484442E-1,7.012842E0,1.4847565E-1,0E0,1.2868139E1,3.7348785E0,7.1902657E-1,1.0483684E1,2.854565E0,8.0116005E0,0E0,0E0,0E0,0E0,0E0,0E0,0E0,0E0,0E0,0E0,0E0,0E0,0E0,0E0,0E0,0E0,0E0,0E0,0E0,0E0],"parents":[2147483647,0,0,1,1,2,2,3,3,4,4,5,5,6,6,7,7,8,8,9,9,10,10,12,12,13,13,14,14,18,18,19,19,20,20,21,21,23,23,24,24,25,25,26,26,27,27,28,28],"right_children":[2,4,6,8,10,12,14,16,18,20,22,-1,24,26,28,-1,-1,-1,30,32,34,36,-1,38,40,42,44,46,48,-1,-1,-1,-1,-1,-1,-1,-1,-1,-1,-1,-1,-1,-1,-1,-1,-1,-1,-1,-1],"split_conditions":[3.056553E1,1.7616539E1,4.077466E1,2.1733038E1,3.3802197E1,1.5104793E1,3.818302E1,7.610026E-1,5.092631E0,2.6680153E1,9.8105484E-1,2.3748334E-1,3.9558224E1,7.0396835E-1,1.2872801E1,-8.127266E-2,4.367524E-2,-5.731077E-2,1.6054009E-1,3.2121387E-1,5.4281735E-1,6.103181E1,-3.3103894E-2,2.8001766E1,9.156851E-1,2.830382E3,2.351929E1,5.1989136E0,6.3019314E1,-6.004903E-3,1.4732282E-1,-5.9517543E-3,-9.306115E-2,-5.1960476E-2,1.1518663E-1,-4.0002964E-2,-1.01738706E-1,5.014959E-2,2.2416781E-1,1.2584858E-2,1.9285713E-1,-9.544472E-2,-4.996919E-3,-3.4319025E-2,1.5994658E-1,3.568639E-2,-7.867024E-2,1.6265962E-1,2.027783E-2],"split_indices":[0,1,1,0,1,1,0,4,2,0,4,0,0,4,2,0,0,0,4,3,4,5,0,2,2,5,2,3,1,0,0,0,0,0,0,0,0,0,0,0,0,0,0,0,0,0,0,0,0],"split_type":[0,0,0,0,0,0,0,0,0,0,0,0,0,0,0,0,0,0,0,0,0,0,0,0,0,0,0,0,0,0,0,0,0,0,0,0,0,0,0,0,0,0,0,0,0,0,0,0,0],"sum_hessian":[2.5867996E2,1.3963272E2,1.19047226E2,1.4857532E1,1.2477519E2,6.0476974E1,5.8570255E1,4.3596315E0,1.04979E1,2.4495306E1,1.00279884E2,1.0126762E1,5.0350212E1,3.1195992E1,2.7374264E1,3.3350928E0,1.024539E0,1.017449E0,9.480451E0,1.6301163E1,8.194144E0,9.845636E1,1.8235242E0,3.049765E1,1.9852562E1,1.9927814E1,1.1268176E1,7.1733217E0,2.0200941E1,1.013446E0,8.467005E0,1.0517805E0,1.5249382E1,4.4418173E0,3.7523274E0,2.1273935E0,9.632897E1,2.6160582E1,4.3370695E0,1.3755141E0,1.8477047E1,1.888914E1,1.038676E0,8.26638E0,3.0017955E0,4.5585494E0,2.614772E0,1.4471596E1,5.729346E0],"tree_param":{"num_deleted":"0","num_feature":"6","num_nodes":"49","size_leaf_vector":"1"}},{"base_weights":[-1.5819823E-2,-7.170019E-1,7.35723E-1,5.525775E-1,-8.893076E-1,1.3983798E0,2.4922746E-1,4.413101E-2,1.5048311E0,-4.698675E-1,-9.900899E-1,2.5333485E-1,1.5036155E0,-2.0979603E-1,1.1520938E0,-7.954637E-2,4.4112894E-1,1.9301897E-1,1.0611991E-2,-8.63219E-1,2.605339E-1,-9.997542E-1,-3.158725E-2,-3.39122E-1,1.06901705E-1,1.2627895E0,2.0396554E-1,-6.1857164E-1,4.5320725E-1,1.6164346E-1,1.4666567E0,6.2354296E-3,1.3951668E-1,-5.6625432E-3,-9.156077E-2,-2.6737738E-2,1.4129171E-1,-3.8241792E-2,-1.009719E-1,3.9500058E-2,-7.3360346E-2,1.6571335E-1,8.7917425E-2,-8.316786E-2,-1.0145636E-2,-4.6453614E-2,8.661974E-2,-6.4715475E-2,9.8890476E-2,8.069539E-2,1.9898292E-1],"categories":[],"categories_nodes":[],"categories_segments":[],"categories_sizes":[],"default_left":[0,0,0,0,0,0,0,0,0,0,0,0,0,0,0,0,0,0,0,0,0,0,0,0,0,0,0,0,0,0,0,0,0,0,0,0,0,0,0,0,0,0,0,0,0,0,0,0,0,0,0],"id":6,"left_children":[1,3,5,7,9,11,13,15,17,19,21,23,25,27,29,-1,31,-1,-1,33,35,37,-1,39,-1,41,-1,43,45,47,49,-1,-1,-1,-1,-1,-1,-1,-1,-1,-1,-1,-1,-1,-1,-1,-1,-1,-1,-1,-1],"loss_changes":[1.3376129E2,2.9214958E1,3.9151535E1,7.8292656E0,4.438202E0,5.843483E0,3.0027943E1,4.2378583E0,3.1544104E0,7.2279787E0,2.8770447E-1,3.0447962E0,3.5051804E0,1.34229765E1,7.358204E0,0E0,3.0066154E0,0E0,0E0,6.2741756E-1,6.0356584E0,1.7274475E-1,0E0,1.4407254E0,0E0,3.8570938E0,0E0,3.2680244E0,7.631201E0,5.323623E0,4.7373314E0,0E0,0E0,0E0,0E0,0E0,0E0,0E0,0E0,0E0,0E0,0E0,0E0,0E0,0E0,0E0,0E0,0E0,0E0,0E0,0E0],"parents":[2147483647,0,0,1,1,2,2,3,3,4,4,5,5,6,6,7,7,8,8,9,9,10,10,11,11,12,12,13,13,14,14,16,16,19,19,20,20,21,21,23,23,25,25,27,27,28,28,29,29,30,30],"right_children":[2,4,6,8,10,12,14,16,18,20,22,24,26,28,30,-1,32,-1,-1,34,36,38,-1,40,-1,42,-1,44,46,48,50,-1,-1,-1,-1,-1,-1,-1,-1,-1,-1,-1,-1,-1,-1,-1,-1,-1,-1,-1,-1],"split_conditions":[3.056553E1,1.7616539E1,3.5848953E1,7.718631E-1,3.3802197E1,1.4436457E-1,4.1334316E1,2.1733038E1,9.052249E-1,2.6680153E1,9.8105484E-1,3.881454E1,2.2011312E1,7.0396835E-1,4.0571058E-1,-7.954637E-2,2.1793732E1,1.9301897E-1,1.0611991E-2,3.2121387E-1,2.3109138E1,6.103181E1,-3.158725E-2,3.0373879E-2,1.06901705E-1,2.3769018E1,2.0396554E-1,3.727669E1,1.2213437E1,1.9838411E1,4.464725E1,6.2354296E-3,1.3951668E-1,-5.6625432E-3,-9.156077E-2,-2.6737738E-2,1.4129171E-1,-3.8241792E-2,-1.009719E-1,3.9500058E-2,-7.3360346E-2,1.6571335E-1,8.7917425E-2,-8.316786E-2,-1.0145636E-2,-4.6453614E-2,8.661974E-2,-6.4715475E-2,9.8890476E-2,8.069539E-2,1.9898292E-1],"split_indices":[0,1,1,4,1,4,0,0,4,0,4,0,2,4,4,0,2,0,0,3,2,5,0,4,0,1,0,0,2,2,0,0,0,0,0,0,0,0,0,0,0,0,0,0,0,0,0,0,0,0,0],"split_type":[0,0,0,0,0,0,0,0,0,0,0,0,0,0,0,0,0,0,0,0,0,0,0,0,0,0,0,0,0,0,0,0,0,0,0,0,0,0,0,0,0,0,0,0,0,0,0,0,0,0,0],"sum_hessian":[2.5183069E2,1.3030415E2,1.21526535E2,1.5307651E1,1.149965E2,5.0654938E1,7.08716E1,1.0661428E1,4.646222E0,2.3375114E1,9.162138E1,4.5504036E0,4.6104534E1,4.7493305E1,2.3378294E1,3.1005354E0,7.560893E0,3.2713902E0,1.3748322E0,1.5074842E1,8.300272E0,8.9850624E1,1.7707626E0,2.974311E0,1.5760926E0,3.4127766E1,1.19767685E1,2.9420853E1,1.8072453E1,6.0000544E0,1.7378239E1,6.17474E0,1.3861535E0,1.0463134E0,1.4028529E1,6.2192073E0,2.081065E0,2.0528052E0,8.779782E1,1.0391524E0,1.9351587E0,1.5191557E1,1.8936207E1,2.040394E1,9.016913E0,5.5700097E0,1.2502443E1,3.1439683E0,2.856086E0,8.810687E0,8.567552E0],"tree_param":{"num_deleted":"0","num_feature":"6","num_nodes":"51","size_leaf_vector":"1"}},{"base_weights":[-1.437596E-2,-6.94763E-1,6.5679324E-1,5.0510466E-1,-8.733478E-1,1.000131E0,-1.1694505E-1,4.408817E-2,1.3255184E0,-4.4452855E-1,-9.8096466E-1,6.608003E-1,1.5067629E0,-7.271882E-1,3.5978454E-1,-5.529234E-1,5.5014735E-1,1.6787615E0,9.958233E-3,-8.4510314E-1,2.4413584E-1,-9.916561E-1,-2.8118005E-2,2.581758E-1,1.2632731E0,2.0368157E-2,1.54685E0,-9.642959E-2,-2.1517846E-1,-1.4398289E-4,1.3365132E0,-8.547739E-2,4.237261E-2,9.573301E-2,-4.1705392E-2,5.5396985E-2,1.9124816E-1,-5.3873654E-3,-9.004416E-2,-7.80243E-2,7.790502E-2,-3.5256255E-2,-1.00251175E-1,8.952508E-2,-4.9251977E-2,8.7248154E-2,1.9209525E-1,1.2076221E-1,1.7793587E-1,-8.1237935E-2,6.3009016E-2,-4.737265E-2,8.555187E-2,-1.5139051E-2,1.7316668E-1],"categories":[],"categories_nodes":[],"categories_segments":[],"categories_sizes":[],"default_left":[0,0,0,0,0,0,0,0,0,0,0,0,0,0,0,0,0,0,0,0,0,0,0,0,0,0,0,0,0,0,0,0,0,0,0,0,0,0,0,0,0,0,0,0,0,0,0,0,0,0,0,0,0,0,0],"id":7,"left_children":[1,3,5,7,9,11,13,15,17,19,21,23,25,27,29,31,33,35,-1,37,39,41,-1,43,45,-1,47,-1,49,51,53,-1,-1,-1,-1,-1,-1,-1,-1,-1,-1,-1,-1,-1,-1,-1,-1,-1,-1,-1,-1,-1,-1,-1,-1],"loss_changes":[1.1267785E2,2.6694798E1,3.3117924E1,6.184824E0,4.5024567E0,1.3814705E1,1.1629812E1,3.8095996E0,2.389655E0,6.633163E0,3.5499573E-1,1.2620857E1,1.449234E0,1.91331E0,7.9477963E0,2.0784383E0,3.0697603E0,1.2890434E-1,0E0,6.06246E-1,5.72773E0,2.2270203E-1,0E0,1.6342867E1,3.7531738E0,0E0,4.236679E-1,0E0,3.9528456E0,7.5046573E0,3.8414001E0,0E0,0E0,0E0,0E0,0E0,0E0,0E0,0E0,0E0,0E0,0E0,0E0,0E0,0E0,0E0,0E0,0E0,0E0,0E0,0E0,0E0,0E0,0E0,0E0],"parents":[2147483647,0,0,1,1,2,2,3,3,4,4,5,5,6,6,7,7,8,8,9,9,10,10,11,11,12,12,13,13,14,14,15,15,16,16,17,17,19,19,20,20,21,21,23,23,24,24,26,26,28,28,29,29,30,30],"right_children":[2,4,6,8,10,12,14,16,18,20,22,24,26,28,30,32,34,36,-1,38,40,42,-1,44,46,-1,48,-1,50,52,54,-1,-1,-1,-1,-1,-1,-1,-1,-1,-1,-1,-1,-1,-1,-1,-1,-1,-1,-1,-1,-1,-1,-1,-1],"split_conditions":[3.056553E1,1.7616539E1,5.0697758E1,7.718631E-1,3.3802197E1,7.0396835E-1,3.727669E1,2.4304678E1,9.052249E-1,2.6680153E1,2.1225613E1,3.9558224E1,5.2618665E-1,2.0025747E1,8.616673E-1,2.085813E1,2.8229746E1,9.486462E2,9.958233E-3,3.2121387E-1,3.792489E-1,6.103181E1,-2.8118005E-2,3.1417273E1,1.9838411E1,2.0368157E-2,3.7024513E1,-9.642959E-2,7.0396835E-1,4.396793E1,1.3177582E1,-8.547739E-2,4.237261E-2,9.573301E-2,-4.1705392E-2,5.5396985E-2,1.9124816E-1,-5.3873654E-3,-9.004416E-2,-7.80243E-2,7.790502E-2,-3.5256255E-2,-1.00251175E-1,8.952508E-2,-4.9251977E-2,8.7248154E-2,1.9209525E-1,1.2076221E-1,1.7793587E-1,-8.1237935E-2,6.3009016E-2,-4.737265E-2,8.555187E-2,-1.5139051E-2,1.7316668E-1],"split_indices":[0,1,1,4,1,4,0,0,4,0,3,0,2,2,4,2,0,5,0,3,4,5,0,1,2,0,0,0,4,0,2,0,0,0,0,0,0,0,0,0,0,0,0,0,0,0,0,0,0,0,0,0,0,0,0],"split_type":[0,0,0,0,0,0,0,0,0,0,0,0,0,0,0,0,0,0,0,0,0,0,0,0,0,0,0,0,0,0,0,0,0,0,0,0,0,0,0,0,0,0,0,0,0,0,0,0,0,0,0,0,0,0,0],"sum_hessian":[2.4474695E2,1.2152141E2,1.2322554E2,1.5506778E1,1.0601463E2,8.514901E1,3.8076527E1,1.0602587E1,4.9041915E0,2.2297358E1,8.371728E1,5.2374218E1,3.2774796E1,1.6469362E1,2.1607164E1,4.8216963E0,5.7808905E0,3.5204363E0,1.383755E0,1.3953739E1,8.343617E0,8.204667E1,1.6706091E0,3.22503E1,2.0123913E1,1.1596588E0,3.1615135E1,1.0652787E1,5.8165746E0,1.6519508E1,5.087655E0,3.7786336E0,1.0430628E0,4.0753937E0,1.7054969E0,1.1854786E0,2.3349578E0,1.0411344E0,1.2912604E1,2.7049384E0,5.6386795E0,1.9295108E0,8.011716E1,1.7341198E1,1.4909104E1,1.40826435E1,6.04127E0,1.537583E1,1.6239307E1,3.4312387E0,2.385336E0,1.0921284E1,5.5982256E0,1.1970793E0,3.8905756E0],"tree_param":{"num_deleted":"0","num_feature":"6","num_nodes":"55","size_leaf_vector":"1"}},{"base_weights":[-1.3306688E-2,-6.728066E-1,5.908057E-1,4.644134E-1,-8.574377E-1,9.5020485E-1,-3.7254256E-3,-4.5537037E-1,7.9150957E-1,-4.2337325E-1,-9.7179395E-1,5.555902E-1,1.3249488E0,-8.159737E-1,3.7801313E-1,-7.84943E-2,3.9837666E-2,-7.897903E-2,1.0280168E0,-8.266977E-1,2.1490932E-1,-9.832906E-1,-2.5713567E-2,1.0095522E0,-5.648275E-3,4.244598E-1,1.5201449E0,-9.141016E-1,-5.7119518E-3,-2.7003044E-1,8.818618E-1,-6.8859786E-2,5.287826E-2,1.2395665E-2,1.3431597E-1,-5.1255403E-3,-8.850437E-2,-7.619592E-2,6.8032704E-2,-3.4968928E-2,-9.950214E-2,9.871277E-3,1.15016006E-1,-7.366552E-2,7.826414E-2,-5.957964E-2,1.0826881E-1,8.8531636E-2,1.6631967E-1,-6.7749457E-3,-9.773699E-2,-7.506754E-2,3.464991E-2,1.1438161E-1,-5.3708702E-2],"categories":[],"categories_nodes":[],"categories_segments":[],"categories_sizes":[],"default_left":[0,0,0,0,0,0,0,0,0,0,0,0,0,0,0,0,0,0,0,0,0,0,0,0,0,0,0,0,0,0,0,0,0,0,0,0,0,0,0,0,0,0,0,0,0,0,0,0,0,0,0,0,0,0,0],"id":8,"left_children":[1,3,5,7,9,11,13,15,17,19,21,23,25,27,29,-1,-1,31,33,35,37,39,-1,41,43,45,47,49,-1,51,53,-1,-1,-1,-1,-1,-1,-1,-1,-1,-1,-1,-1,-1,-1,-1,-1,-1,-1,-1,-1,-1,-1,-1,-1],"loss_changes":[9.546885E1,2.4449944E1,2.6728836E1,5.3693037E0,4.497864E0,1.0791992E1,1.522851E1,1.7201966E0,2.6847882E0,5.942907E0,3.8397217E-1,1.0118858E1,6.256027E0,1.1169634E0,1.114959E1,0E0,0E0,1.7092391E0,2.6871061E0,5.8486843E-1,4.8218007E0,2.1638489E-1,0E0,2.697569E0,1.1377669E1,6.2741075E0,1.4227295E0,6.746931E-1,0E0,4.81854E0,7.6896305E0,0E0,0E0,0E0,0E0,0E0,0E0,0E0,0E0,0E0,0E0,0E0,0E0,0E0,0E0,0E0,0E0,0E0,0E0,0E0,0E0,0E0,0E0,0E0,0E0],"parents":[2147483647,0,0,1,1,2,2,3,3,4,4,5,5,6,6,7,7,8,8,9,9,10,10,11,11,12,12,13,13,14,14,17,17,18,18,19,19,20,20,21,21,23,23,24,24,25,25,26,26,27,27,29,29,30,30],"right_children":[2,4,6,8,10,12,14,16,18,20,22,24,26,28,30,-1,-1,32,34,36,38,40,-1,42,44,46,48,50,-1,52,54,-1,-1,-1,-1,-1,-1,-1,-1,-1,-1,-1,-1,-1,-1,-1,-1,-1,-1,-1,-1,-1,-1,-1,-1],"split_conditions":[3.056553E1,1.7616539E1,4.6477753E1,2.1733038E1,3.3802197E1,1.6731976E1,3.5683792E1,8.243069E-1,9.130418E0,2.6680153E1,9.8105484E-1,3.1417273E1,3.088189E-1,9.443874E-1,5.6360495E-1,-7.84943E-2,3.9837666E-2,1.1358697E1,6.767407E2,3.2121387E-1,3.792489E-1,6.103181E1,-2.5713567E-2,9.687802E-1,3.9558224E1,3.6008213E1,6.360932E2,4.8324337E1,-5.7119518E-3,4.2388996E1,7.1659996E1,-6.8859786E-2,5.287826E-2,1.2395665E-2,1.3431597E-1,-5.1255403E-3,-8.850437E-2,-7.619592E-2,6.8032704E-2,-3.4968928E-2,-9.950214E-2,9.871277E-3,1.15016006E-1,-7.366552E-2,7.826414E-2,-5.957964E-2,1.0826881E-1,8.8531636E-2,1.6631967E-1,-6.7749457E-3,-9.773699E-2,-7.506754E-2,3.464991E-2,1.1438161E-1,-5.3708702E-2],"split_indices":[0,1,1,0,1,2,0,4,2,0,4,1,4,4,4,0,0,1,5,3,4,5,0,3,0,0,5,1,0,0,1,0,0,0,0,0,0,0,0,0,0,0,0,0,0,0,0,0,0,0,0,0,0,0,0],"split_type":[0,0,0,0,0,0,0,0,0,0,0,0,0,0,0,0,0,0,0,0,0,0,0,0,0,0,0,0,0,0,0,0,0,0,0,0,0,0,0,0,0,0,0,0,0,0,0,0,0,0,0,0,0,0,0],"sum_hessian":[2.3762566E2,1.1355058E2,1.2407508E2,1.5648643E1,9.790194E1,7.695618E1,4.7118908E1,4.0022593E0,1.1646383E1,2.1394947E1,7.650699E1,3.8693527E1,3.826265E1,1.4701057E1,3.241785E1,2.945714E0,1.0565455E0,2.630526E0,9.015858E0,1.2929643E1,8.465304E0,7.492577E1,1.5812145E0,2.094954E1,1.7743986E1,7.382025E0,3.0880625E1,1.2836571E1,1.8644868E0,1.4382863E1,1.8034986E1,1.2468548E0,1.3836713E0,2.6905963E0,6.3252606E0,1.0362273E0,1.1893415E1,2.5261016E0,5.939203E0,1.9220511E0,7.300372E1,3.0291495E0,1.792039E1,9.240483E0,8.503503E0,2.9321032E0,4.4499216E0,7.000942E0,2.3879683E1,1.0368779E0,1.1799693E1,7.9598227E0,6.423041E0,1.538807E1,2.6469164E0],"tree_param":{"num_deleted":"0","num_feature":"6","num_nodes":"55","size_leaf_vector":"1"}},{"base_weights":[-1.4490798E-2,-7.0448875E-1,4.9304983E-1,3.779191E-1,-8.980485E-1,8.245196E-1,-7.046232E-2,-7.249313E-2,6.083485E-1,-5.6235844E-1,-1.0010848E0,6.441338E-1,1.5940313E0,-8.366612E-1,3.3444896E-1,1.5447812E-1,1.3608584E0,-9.5132045E-2,-7.788158E-2,-2.7347663E-2,-1.016069E-1,3.07044E-1,1.218049E0,4.5719114E-1,1.7600697E0,-9.2312133E-1,-1.1540635E-1,-1.4626303E-1,8.7392944E-1,-1.751285E-2,1.0464692E-1,4.9599655E-2,1.702074E-1,-7.409658E-2,7.25997E-2,-2.4621759E-2,8.0578364E-2,-1.082797E-3,1.2976637E-1,-1.1979078E-2,7.923757E-2,6.3640535E-2,1.8530044E-1,-1.8702801E-2,-9.777682E-2,3.9994273E-2,-5.701349E-2,-4.4209596E-2,5.4153044E-2,1.2792693E-1,6.246064E-4],"categories":[],"categories_nodes":[],"categories_segments":[],"categories_sizes":[],"default_left":[0,0,0,0,0,0,0,0,0,0,0,0,0,0,0,0,0,0,0,0,0,0,0,0,0,0,0,0,0,0,0,0,0,0,0,0,0,0,0,0,0,0,0,0,0,0,0,0,0,0,0],"id":9,"left_children":[1,3,5,7,9,11,13,-1,15,17,19,21,23,25,27,29,31,-1,33,-1,-1,35,37,39,41,43,45,47,49,-1,-1,-1,-1,-1,-1,-1,-1,-1,-1,-1,-1,-1,-1,-1,-1,-1,-1,-1,-1,-1,-1],"loss_changes":[8.1547676E1,2.1014225E1,2.512223E1,4.424095E0,2.3427277E0,1.0711842E1,1.5983942E1,0E0,4.403448E0,4.0738006E0,4.0896225E-1,1.3204172E1,2.0986366E0,1.0026636E0,8.901585E0,2.992268E0,6.1776257E-1,0E0,6.343442E0,0E0,0E0,1.2767871E1,2.5218887E0,7.352658E-1,1.8560791E-1,4.5028114E-1,9.4203365E-1,4.053892E0,5.649149E0,0E0,0E0,0E0,0E0,0E0,0E0,0E0,0E0,0E0,0E0,0E0,0E0,0E0,0E0,0E0,0E0,0E0,0E0,0E0,0E0,0E0,0E0],"parents":[2147483647,0,0,1,1,2,2,3,3,4,4,5,5,6,6,8,8,9,9,10,10,11,11,12,12,13,13,14,14,15,15,16,16,18,18,21,21,22,22,23,23,24,24,25,25,26,26,27,27,28,28],"right_children":[2,4,6,8,10,12,14,-1,16,18,20,22,24,26,28,30,32,-1,34,-1,-1,36,38,40,42,44,46,48,50,-1,-1,-1,-1,-1,-1,-1,-1,-1,-1,-1,-1,-1,-1,-1,-1,-1,-1,-1,-1,-1,-1],"split_conditions":[2.9486357E1,1.7616539E1,4.6477753E1,1.7221832E1,3.67795E1,2.6382814E1,3.5683792E1,-7.249313E-2,7.718631E-1,2.3398672E1,6.103181E1,3.9558224E1,2.7686092E-1,9.443874E-1,6.3983977E-1,2.2859928E1,2.7230656E0,-9.5132045E-2,5.4281735E-1,-2.7347663E-2,-1.016069E-1,5.988424E-1,2.1997745E-1,3.580056E1,2.8001766E1,4.8324337E1,2.9288237E0,4.464725E1,6.3019314E1,-1.751285E-2,1.0464692E-1,4.9599655E-2,1.702074E-1,-7.409658E-2,7.25997E-2,-2.4621759E-2,8.0578364E-2,-1.082797E-3,1.2976637E-1,-1.1979078E-2,7.923757E-2,6.3640535E-2,1.8530044E-1,-1.8702801E-2,-9.777682E-2,3.9994273E-2,-5.701349E-2,-4.4209596E-2,5.4153044E-2,1.2792693E-1,6.246064E-4],"split_indices":[0,1,1,0,1,2,0,0,4,0,5,0,4,4,4,2,3,0,4,0,0,4,2,0,2,1,3,0,1,0,0,0,0,0,0,0,0,0,0,0,0,0,0,0,0,0,0,0,0,0,0],"split_type":[0,0,0,0,0,0,0,0,0,0,0,0,0,0,0,0,0,0,0,0,0,0,0,0,0,0,0,0,0,0,0,0,0,0,0,0,0,0,0,0,0,0,0,0,0,0,0,0,0,0,0],"sum_hessian":[2.3086711E2,9.76816E1,1.331855E2,1.4673467E1,8.300814E1,8.356666E1,4.961885E1,2.1651092E0,1.2508358E1,2.1011374E1,6.1996765E1,6.918554E1,1.438112E1,1.6787048E1,3.2831806E1,8.554228E0,3.9541302E0,1.1120048E1,9.891326E0,1.6394297E0,6.0357334E1,4.4552544E1,2.4632992E1,2.311073E0,1.2070046E1,1.4740191E1,2.0468562E0,1.774698E1,1.5084825E1,6.8329835E0,1.7212439E0,1.8128375E0,2.1412926E0,5.4632187E0,4.4281077E0,2.1361801E1,2.3190742E1,1.5513521E0,2.308164E1,1.085361E0,1.2257121E0,1.5215088E0,1.0548538E1,1.3243032E0,1.3415889E1,1.0159492E0,1.0309068E0,1.2659232E1,5.087748E0,9.958394E0,5.1264305E0],"tree_param":{"num_deleted":"0","num_feature":"6","num_nodes":"51","size_leaf_vector":"1"}},{"base_weights":[-1.3491378E-2,-6.831563E-1,4.4774127E-1,3.5371053E-1,-8.843081E-1,7.5592166E-1,-5.0180938E-2,-7.0720926E-2,5.632342E-1,-5.390326E-1,-9.949363E-1,4.605807E-1,1.1405011E0,-8.323361E-1,3.4237573E-1,1.4695229E-1,1.2401091E0,-9.410552E-2,-7.29115E-2,-2.606589E-2,-1.0112923E-1,1.7705986E-1,1.0940545E0,7.634138E-1,1.3630773E0,-9.1883063E-1,-1.10659346E-1,-6.139625E-2,7.6387215E-1,-1.6157499E-2,9.3929805E-2,4.572552E-2,1.5492372E-1,-8.441742E-2,5.2965015E-2,1.3135497E-1,-3.7165724E-3,-2.5946794E-3,1.2288972E-1,1.2887585E-1,6.747643E-3,1.4042358E-1,3.6397215E-2,-9.720083E-2,-3.6608342E-2,-5.4523464E-2,3.790414E-2,-5.332139E-2,2.9691238E-2,9.640343E-2,-4.4640522E-2],"categories":[],"categories_nodes":[],"categories_segments":[],"categories_sizes":[],"default_left":[0,0,0,0,0,0,0,0,0,0,0,0,0,0,0,0,0,0,0,0,0,0,0,0,0,0,0,0,0,0,0,0,0,0,0,0,0,0,0,0,0,0,0,0,0,0,0,0,0,0,0],"id":10,"left_children":[1,3,5,7,9,11,13,-1,15,17,19,21,23,25,27,29,31,-1,33,-1,-1,35,37,39,41,43,45,47,49,-1,-1,-1,-1,-1,-1,-1,-1,-1,-1,-1,-1,-1,-1,-1,-1,-1,-1,-1,-1,-1,-1],"loss_changes":[6.976752E1,1.9525192E1,2.0565332E1,3.8840597E0,2.421486E0,8.867081E0,1.6275707E1,0E0,3.6644073E0,3.8614345E0,4.2650986E-1,8.508092E0,1.9173012E0,1.0028791E0,6.069017E0,2.4955177E0,5.171566E-1,0E0,5.4643593E0,0E0,0E0,8.488111E0,2.2650776E0,5.526515E0,3.4786224E-1,1.0460377E-1,8.516481E-1,3.3700657E0,4.642359E0,0E0,0E0,0E0,0E0,0E0,0E0,0E0,0E0,0E0,0E0,0E0,0E0,0E0,0E0,0E0,0E0,0E0,0E0,0E0,0E0,0E0,0E0],"parents":[2147483647,0,0,1,1,2,2,3,3,4,4,5,5,6,6,8,8,9,9,10,10,11,11,12,12,13,13,14,14,15,15,16,16,18,18,21,21,22,22,23,23,24,24,25,25,26,26,27,27,28,28],"right_children":[2,4,6,8,10,12,14,-1,16,18,20,22,24,26,28,30,32,-1,34,-1,-1,36,38,40,42,44,46,48,50,-1,-1,-1,-1,-1,-1,-1,-1,-1,-1,-1,-1,-1,-1,-1,-1,-1,-1,-1,-1,-1,-1],"split_conditions":[2.9486357E1,1.7616539E1,4.4977642E1,1.7221832E1,3.67795E1,6.8691E-1,3.5683792E1,-7.0720926E-2,7.718631E-1,2.3398672E1,6.103181E1,2.1491478E1,1.3979436E1,9.443874E-1,6.3983977E-1,2.2859928E1,2.7230656E0,-9.410552E-2,4.62974E-1,-2.606589E-2,-1.0112923E-1,1.2665988E1,1.2433657E-1,9.4383545E0,9.661163E-1,3.458386E1,1.4960875E1,1.5779373E1,7.1659996E1,-1.6157499E-2,9.3929805E-2,4.572552E-2,1.5492372E-1,-8.441742E-2,5.2965015E-2,1.3135497E-1,-3.7165724E-3,-2.5946794E-3,1.2288972E-1,1.2887585E-1,6.747643E-3,1.4042358E-1,3.6397215E-2,-9.720083E-2,-3.6608342E-2,-5.4523464E-2,3.790414E-2,-5.332139E-2,2.9691238E-2,9.640343E-2,-4.4640522E-2],"split_indices":[0,1,1,0,1,4,0,0,4,0,5,2,2,4,4,2,3,0,4,0,0,1,4,2,4,0,2,2,1,0,0,0,0,0,0,0,0,0,0,0,0,0,0,0,0,0,0,0,0,0,0],"split_type":[0,0,0,0,0,0,0,0,0,0,0,0,0,0,0,0,0,0,0,0,0,0,0,0,0,0,0,0,0,0,0,0,0,0,0,0,0,0,0,0,0,0,0,0,0,0,0,0,0,0,0],"sum_hessian":[2.238886E2,9.111595E1,1.3277266E2,1.4681179E1,7.643477E1,8.169239E1,5.108026E1,2.0295033E0,1.2651676E1,1.9972425E1,5.6462345E1,4.7450226E1,3.424217E1,1.6695257E1,3.4385002E1,8.587449E0,4.0642266E0,1.0176465E1,9.795959E0,1.5993292E0,5.4863014E1,3.3663235E1,1.378699E1,1.4353849E1,1.988832E1,1.4664497E1,2.0307603E0,1.799809E1,1.6386911E1,6.7537303E0,1.8337188E0,1.8523659E0,2.211861E0,4.120656E0,5.675304E0,4.525159E0,2.9138077E1,1.5683006E0,1.2218689E1,7.6940117E0,6.6598372E0,1.8711977E1,1.1763433E0,1.2685563E1,1.9789345E0,1.0158556E0,1.0149047E0,7.5578446E0,1.0440246E1,1.4235953E1,2.1509578E0],"tree_param":{"num_deleted":"0","num_feature":"6","num_nodes":"51","size_leaf_vector":"1"}},{"base_weights":[-1.2863117E-2,-6.6190034E-1,4.0551028E-1,3.3098528E-1,-8.7027925E-1,5.4874474E-1,-4.8642692E-1,-6.897713E-2,5.2237034E-1,-5.168364E-1,-9.8882353E-1,2.6350534E-1,9.1802233E-1,-6.571763E-1,1.1684934E-1,-6.435438E-2,6.995007E-1,-9.306321E-2,-7.0760496E-2,-2.4838341E-2,-1.0066781E-1,-1.6630387E-1,5.9035087E-1,5.0662136E-1,1.0977907E0,-9.492972E-2,-2.7694687E-1,3.0183885E-2,1.24659255E-1,-7.031299E-2,5.714618E-2,1.4950112E-1,-2.9710343E-2,1.21777676E-1,2.334558E-2,7.561779E-2,-8.559965E-2,5.795644E-2,1.2536578E-1,2.6546283E-2,-9.1126285E-2],"categories":[],"categories_nodes":[],"categories_segments":[],"categories_sizes":[],"default_left":[0,0,0,0,0,0,0,0,0,0,0,0,0,0,0,0,0,0,0,0,0,0,0,0,0,0,0,0,0,0,0,0,0,0,0,0,0,0,0,0,0],"id":11,"left_children":[1,3,5,7,9,11,13,-1,15,17,19,21,23,25,-1,-1,27,-1,29,-1,-1,31,33,35,37,-1,39,-1,-1,-1,-1,-1,-1,-1,-1,-1,-1,-1,-1,-1,-1],"loss_changes":[5.967933E1,1.8109287E1,1.7342375E1,3.4208202E0,2.4834251E0,1.1937981E1,6.1436095E0,0E0,3.292207E0,3.634214E0,4.4302368E-1,9.460184E0,3.1409645E0,1.723597E0,0E0,0E0,2.3270707E0,0E0,4.7589827E0,0E0,0E0,6.8690934E0,8.241713E0,6.4480352E0,2.014244E0,0E0,3.4011896E0,0E0,0E0,0E0,0E0,0E0,0E0,0E0,0E0,0E0,0E0,0E0,0E0,0E0,0E0],"parents":[2147483647,0,0,1,1,2,2,3,3,4,4,5,5,6,6,8,8,9,9,10,10,11,11,12,12,13,13,16,16,18,18,21,21,22,22,23,23,24,24,26,26],"right_children":[2,4,6,8,10,12,14,-1,16,18,20,22,24,26,-1,-1,28,-1,30,-1,-1,32,34,36,38,-1,40,-1,-1,-1,-1,-1,-1,-1,-1,-1,-1,-1,-1,-1,-1],"split_conditions":[2.9486357E1,1.7616539E1,6.3019314E1,1.7221832E1,3.67795E1,6.8691E-1,3.3685272E1,-6.897713E-2,7.4183617E0,2.3398672E1,6.103181E1,3.6195747E1,1.2377665E1,3.818302E1,1.1684934E-1,-6.435438E-2,7.536493E-1,-9.306321E-2,5.4281735E-1,-2.4838341E-2,-1.0066781E-1,7.862218E0,3.1417273E1,1.1279357E1,3.3712975E1,-9.492972E-2,1.8712069E1,3.0183885E-2,1.24659255E-1,-7.031299E-2,5.714618E-2,1.4950112E-1,-2.9710343E-2,1.21777676E-1,2.334558E-2,7.561779E-2,-8.559965E-2,5.795644E-2,1.2536578E-1,2.6546283E-2,-9.1126285E-2],"split_indices":[0,1,1,0,1,4,2,0,2,0,5,0,2,0,0,0,4,0,4,0,0,1,1,2,0,0,2,0,0,0,0,0,0,0,0,0,0,0,0,0,0],"split_type":[0,0,0,0,0,0,0,0,0,0,0,0,0,0,0,0,0,0,0,0,0,0,0,0,0,0,0,0,0,0,0,0,0,0,0,0,0,0,0,0,0],"sum_hessian":[2.1779262E2,8.513603E1,1.3265659E2,1.4666168E1,7.0469864E1,1.14632706E2,1.8023874E1,1.90448E0,1.2761688E1,1.9045395E1,5.1424473E1,6.564241E1,4.89903E1,1.6884663E1,1.1392103E0,1.3358225E0,1.1425866E1,9.316665E0,9.72873E0,1.5619248E0,4.9862545E1,2.856715E1,3.7075256E1,1.6058508E1,3.293179E1,8.702277E0,8.182385E0,7.5151105E0,3.9107552E0,4.8541813E0,4.8745484E0,1.3237767E0,2.7243374E1,1.25681505E1,2.4507107E1,1.39488945E1,2.1096144E0,8.705631E0,2.4226158E1,4.724186E0,3.4581997E0],"tree_param":{"num_deleted":"0","num_feature":"6","num_nodes":"41","size_leaf_vector":"1"}},{"base_weights":[-1.2883624E-2,-6.418429E-1,3.6816934E-1,2.972721E-1,-8.557715E-1,5.7885045E-1,-1.7019603E-1,-6.726243E-2,4.7009268E-1,-4.945336E-1,-9.8269004E-1,4.3610966E-1,1.322502E0,-3.8093692E-1,6.87009E-1,-6.253221E-2,6.293162E-1,-9.200022E-2,-6.699333E-2,-2.3663482E-2,-1.0021787E-1,1.3978003E-1,9.4468117E-1,2.8101271E-2,1.4608036E0,-9.10776E-2,6.155323E-3,-4.3977957E-2,1.1034275E0,2.7042387E-2,1.1242997E-1,-8.1444204E-2,4.2664807E-2,5.4710675E-2,-3.8012203E-2,5.22391E-2,1.2942067E-1,1.5851845E-1,4.433358E-2,-6.1868455E-2,3.0845582E-2,-2.3224961E-3,1.550648E-1],"categories":[],"categories_nodes":[],"categories_segments":[],"categories_sizes":[],"default_left":[0,0,0,0,0,0,0,0,0,0,0,0,0,0,0,0,0,0,0,0,0,0,0,0,0,0,0,0,0,0,0,0,0,0,0,0,0,0,0,0,0,0,0],"id":12,"left_children":[1,3,5,7,9,11,13,-1,15,17,19,21,23,25,27,-1,29,-1,31,-1,-1,33,35,-1,37,-1,39,-1,41,-1,-1,-1,-1,-1,-1,-1,-1,-1,-1,-1,-1,-1,-1],"loss_changes":[5.1296154E1,1.6475601E1,1.52183E1,2.9515576E0,2.540844E0,9.617542E0,7.1744967E0,0E0,2.8237011E0,3.42688E0,4.5843887E-1,1.2235368E1,1.7462616E0,6.4371557E0,4.1958036E0,0E0,1.9455624E0,0E0,4.274845E0,0E0,0E0,1.1437108E1,3.7576618E0,0E0,9.398937E-1,0E0,3.801183E0,0E0,3.088942E0,0E0,0E0,0E0,0E0,0E0,0E0,0E0,0E0,0E0,0E0,0E0,0E0,0E0,0E0],"parents":[2147483647,0,0,1,1,2,2,3,3,4,4,5,5,6,6,8,8,9,9,10,10,11,11,12,12,13,13,14,14,16,16,18,18,21,21,22,22,24,24,26,26,28,28],"right_children":[2,4,6,8,10,12,14,-1,16,18,20,22,24,26,28,-1,30,-1,32,-1,-1,34,36,-1,38,-1,40,-1,42,-1,-1,-1,-1,-1,-1,-1,-1,-1,-1,-1,-1,-1,-1],"split_conditions":[2.9486357E1,1.7616539E1,5.0697758E1,1.7221832E1,3.67795E1,2.736872E1,4.464725E1,-6.726243E-2,7.4183617E0,2.3398672E1,6.103181E1,3.9872463E1,2.7686092E-1,5.950964E-1,3.8270628E-1,-6.253221E-2,7.536493E-1,-9.200022E-2,4.62974E-1,-2.3663482E-2,-1.0021787E-1,3.157098E1,1.1254497E3,2.8101271E-2,2.4012E3,-9.10776E-2,3.5683792E1,-4.3977957E-2,1.3666097E1,2.7042387E-2,1.1242997E-1,-8.1444204E-2,4.2664807E-2,5.4710675E-2,-3.8012203E-2,5.22391E-2,1.2942067E-1,1.5851845E-1,4.433358E-2,-6.1868455E-2,3.0845582E-2,-2.3224961E-3,1.550648E-1],"split_indices":[0,1,1,0,1,2,0,0,2,0,5,0,4,4,4,0,4,0,4,0,0,1,5,0,5,0,0,0,2,0,0,0,0,0,0,0,0,0,0,0,0,0,0],"split_type":[0,0,0,0,0,0,0,0,0,0,0,0,0,0,0,0,0,0,0,0,0,0,0,0,0,0,0,0,0,0,0,0,0,0,0,0,0,0,0,0,0,0,0],"sum_hessian":[2.1204514E2,7.974125E1,1.3230388E2,1.4722421E1,6.501883E1,9.5037285E1,3.7266598E1,1.7891866E0,1.2933234E1,1.8177671E1,4.684116E1,8.106386E1,1.3973425E1,3.0358637E1,6.9079604E0,1.2698292E0,1.1663404E1,8.533586E0,9.644085E0,1.527012E0,4.5314148E1,5.2025173E1,2.9038689E1,1.9934566E0,1.1979968E1,1.2245092E1,1.8113544E1,1.8489041E0,5.0590563E0,7.6575537E0,4.0058513E0,3.5774348E0,6.0666504E0,2.9141447E1,2.2883724E1,1.4280194E1,1.4758494E1,1.0177807E1,1.802161E0,5.564799E0,1.2548745E1,1.7069418E0,3.3521147E0],"tree_param":{"num_deleted":"0","num_feature":"6","num_nodes":"43","size_leaf_vector":"1"}},{"base_weights":[-1.2811003E-2,-6.218577E-1,3.368098E-1,2.6694074E-1,-8.4089035E-1,4.556575E-1,-4.5244652E-1,-2.0319267E-1,6.1543185E-1,-4.7346917E-1,-9.7648215E-1,1.2551239E0,3.497265E-1,-6.2283534E-1,1.0137141E-1,-5.509506E-1,4.2080042E-1,-1.3729335E-2,8.637615E-1,-9.091234E-2,-6.5703E-2,-2.253971E-2,-9.977493E-2,2.4844302E-2,1.3531395E0,8.90677E-2,7.3884386E-1,-9.29374E-2,-2.6250502E-1,-7.989081E-2,7.606392E-3,-1.5215556E-2,7.845929E-2,7.1909584E-2,-6.692966E-2,-8.463166E-3,1.08957686E-1,-7.982894E-2,3.7870284E-2,5.5663325E-2,1.5752435E-1,-1.1294638E-2,9.443279E-2,4.095946E-2,1.044686E-1,2.4129024E-2,-8.9151844E-2],"categories":[],"categories_nodes":[],"categories_segments":[],"categories_sizes":[],"default_left":[0,0,0,0,0,0,0,0,0,0,0,0,0,0,0,0,0,0,0,0,0,0,0,0,0,0,0,0,0,0,0,0,0,0,0,0,0,0,0,0,0,0,0,0,0,0,0],"id":13,"left_children":[1,3,5,7,9,11,13,15,17,19,21,23,25,27,-1,29,31,33,35,-1,37,-1,-1,-1,39,41,43,-1,45,-1,-1,-1,-1,-1,-1,-1,-1,-1,-1,-1,-1,-1,-1,-1,-1,-1,-1],"loss_changes":[4.4280006E1,1.4986935E1,1.2600672E1,2.705787E0,2.5805893E0,9.329063E0,5.076874E0,1.8500825E0,1.464015E0,3.2099543E0,4.727211E-1,9.572468E-1,1.0404719E1,1.5853586E0,0E0,8.725958E-1,7.938247E-1,2.2178366E0,1.5227609E0,0E0,3.7484467E0,0E0,0E0,0E0,1.1966228E0,1.0984123E1,3.7283936E0,0E0,3.0692272E0,0E0,0E0,0E0,0E0,0E0,0E0,0E0,0E0,0E0,0E0,0E0,0E0,0E0,0E0,0E0,0E0,0E0,0E0],"parents":[2147483647,0,0,1,1,2,2,3,3,4,4,5,5,6,6,7,7,8,8,9,9,10,10,11,11,12,12,13,13,15,15,16,16,17,17,18,18,20,20,24,24,25,25,26,26,28,28],"right_children":[2,4,6,8,10,12,14,16,18,20,22,24,26,28,-1,30,32,34,36,-1,38,-1,-1,-1,40,42,44,-1,46,-1,-1,-1,-1,-1,-1,-1,-1,-1,-1,-1,-1,-1,-1,-1,-1,-1,-1],"split_conditions":[2.9486357E1,1.7616539E1,6.3019314E1,2.4304678E1,3.67795E1,1.5104793E1,3.3685272E1,1.9595755E1,3.8538176E-1,2.3398672E1,6.103181E1,5.092631E0,3.9558224E1,3.818302E1,1.0137141E-1,7.610026E-1,1.5768468E3,1.0542379E3,9.3036995E0,-9.091234E-2,4.62974E-1,-2.253971E-2,-9.977493E-2,2.4844302E-2,3.1653688E1,2.6728943E1,1.6586834E1,-9.29374E-2,1.8712069E1,-7.989081E-2,7.606392E-3,-1.5215556E-2,7.845929E-2,7.1909584E-2,-6.692966E-2,-8.463166E-3,1.08957686E-1,-7.982894E-2,3.7870284E-2,5.5663325E-2,1.5752435E-1,-1.1294638E-2,9.443279E-2,4.095946E-2,1.044686E-1,2.4129024E-2,-8.9151844E-2],"split_indices":[0,1,1,0,1,1,2,2,4,0,5,2,0,0,0,4,5,5,2,0,4,0,0,0,0,2,2,0,2,0,0,0,0,0,0,0,0,0,0,0,0,0,0,0,0,0,0],"split_type":[0,0,0,0,0,0,0,0,0,0,0,0,0,0,0,0,0,0,0,0,0,0,0,0,0,0,0,0,0,0,0,0,0,0,0,0,0,0,0,0,0,0,0,0,0,0,0],"sum_hessian":[2.0596681E2,7.4831E1,1.311358E2,1.4751819E1,6.0079178E1,1.1434083E2,1.6794983E1,6.457388E0,8.294431E0,1.7405724E1,4.2673454E1,1.2108546E1,1.0223228E2,1.5561685E1,1.2332973E0,4.2216654E0,2.235722E0,2.614675E0,5.6797557E0,7.8206644E0,9.58506E0,1.4944041E0,4.117905E1,1.387969E0,1.0720577E1,6.195755E1,4.027473E1,7.555162E0,8.006523E0,2.8288355E0,1.39283E0,1.0941846E0,1.1415375E0,1.188833E0,1.425842E0,1.2125275E0,4.4672284E0,3.3184357E0,6.266624E0,3.1020896E0,7.6184874E0,5.0821384E1,1.1136168E1,2.0521683E1,1.9753048E1,4.78804E0,3.2184827E0],"tree_param":{"num_deleted":"0","num_feature":"6","num_nodes":"47","size_leaf_vector":"1"}},{"base_weights":[-1.203464E-2,-6.0123885E-1,3.079448E-1,2.4618544E-1,-8.255224E-1,5.355916E-1,-7.6464914E-2,-6.4955704E-2,3.9703605E-1,-4.530089E-1,-9.701484E-1,-8.309339E-2,6.710024E-1,-7.877948E-1,2.2182795E-1,-5.9794497E-2,5.3392434E-1,-8.979604E-2,-6.466367E-2,-2.1465411E-2,-9.933474E-2,4.9382088E-1,-6.1552423E-1,5.238349E-1,1.2982451E0,-8.8708186E-1,-6.575059E-3,-4.3801364E-1,3.8429767E-1,7.530817E-2,-1.784542E-3,-7.820933E-2,3.3715293E-2,1.0546209E-1,-2.0866519E-2,-8.71695E-2,-7.3914096E-4,2.9058663E-2,9.086823E-2,1.3886826E-1,5.4037273E-2,-9.517393E-2,-2.7216008E-2,-8.224075E-2,-5.963331E-3,1.203357E-2,1.1453547E-1],"categories":[],"categories_nodes":[],"categories_segments":[],"categories_sizes":[],"default_left":[0,0,0,0,0,0,0,0,0,0,0,0,0,0,0,0,0,0,0,0,0,0,0,0,0,0,0,0,0,0,0,0,0,0,0,0,0,0,0,0,0,0,0,0,0,0,0],"id":14,"left_children":[1,3,5,7,9,11,13,-1,15,17,19,21,23,25,27,-1,29,-1,31,-1,-1,33,35,37,39,41,-1,43,45,-1,-1,-1,-1,-1,-1,-1,-1,-1,-1,-1,-1,-1,-1,-1,-1,-1,-1],"loss_changes":[3.8184093E1,1.3749544E1,1.152902E1,2.377441E0,2.609127E0,6.9736557E0,1.0720796E1,0E0,2.232304E0,3.0006282E0,4.858322E-1,5.131904E0,5.5838757E0,1.01015E0,4.0060225E0,0E0,1.5703795E0,0E0,3.2990737E0,0E0,0E0,3.4105225E0,1.3362918E0,4.8201246E0,8.709526E-2,2.5873852E-1,0E0,1.0476556E0,5.739772E0,0E0,0E0,0E0,0E0,0E0,0E0,0E0,0E0,0E0,0E0,0E0,0E0,0E0,0E0,0E0,0E0,0E0,0E0],"parents":[2147483647,0,0,1,1,2,2,3,3,4,4,5,5,6,6,8,8,9,9,10,10,11,11,12,12,13,13,14,14,16,16,18,18,21,21,22,22,23,23,24,24,25,25,27,27,28,28],"right_children":[2,4,6,8,10,12,14,-1,16,18,20,22,24,26,28,-1,30,-1,32,-1,-1,34,36,38,40,42,-1,44,46,-1,-1,-1,-1,-1,-1,-1,-1,-1,-1,-1,-1,-1,-1,-1,-1,-1,-1],"split_conditions":[2.9486357E1,1.7616539E1,4.4977642E1,1.7221832E1,3.67795E1,2.9113856E-1,3.5683792E1,-6.4955704E-2,7.4183617E0,2.3398672E1,6.103181E1,1.0798921E3,2.6728943E1,9.443874E-1,8.855764E0,-5.9794497E-2,1.8035128E3,-8.979604E-2,4.62974E-1,-2.1465411E-2,-9.933474E-2,2.3769018E1,2.085813E1,3.9558224E1,2.4012E3,3.458386E1,-6.575059E-3,2.23808E0,8.616673E-1,7.530817E-2,-1.784542E-3,-7.820933E-2,3.3715293E-2,1.0546209E-1,-2.0866519E-2,-8.71695E-2,-7.3914096E-4,2.9058663E-2,9.086823E-2,1.3886826E-1,5.4037273E-2,-9.517393E-2,-2.7216008E-2,-8.224075E-2,-5.963331E-3,1.203357E-2,1.1453547E-1],"split_indices":[0,1,1,0,1,4,0,0,2,0,5,5,2,4,2,0,5,0,4,0,0,1,2,0,5,0,0,3,4,0,0,0,0,0,0,0,0,0,0,0,0,0,0,0,0,0,0],"split_type":[0,0,0,0,0,0,0,0,0,0,0,0,0,0,0,0,0,0,0,0,0,0,0,0,0,0,0,0,0,0,0,0,0,0,0,0,0,0,0,0,0,0,0,0,0,0,0],"sum_hessian":[2.0055035E2,7.027264E1,1.3027773E2,1.4685993E1,5.5586643E1,8.157555E1,4.870218E1,1.6402599E0,1.3045733E1,1.670131E1,3.8885334E1,1.471766E1,6.685788E1,1.3904214E1,3.4797966E1,1.1704104E0,1.1875323E1,7.1718254E0,9.529484E0,1.4639293E0,3.7421406E1,7.098554E0,7.619106E0,5.5638725E1,1.1219159E1,1.2022458E1,1.8817564E0,6.5401893E0,2.8257778E1,8.238305E0,3.6370184E0,3.0813847E0,6.448099E0,3.6686075E0,3.429947E0,5.055939E0,2.5631666E0,3.5735332E1,1.9903393E1,9.279487E0,1.9396725E0,1.0382974E1,1.6394842E0,2.6621923E0,3.877997E0,2.184074E1,6.417038E0],"tree_param":{"num_deleted":"0","num_feature":"6","num_nodes":"47","size_leaf_vector":"1"}},{"base_weights":[-1.3010952E-2,-7.2526413E-1,2.2335728E-1,1.447099E-2,-8.974386E-1,5.3306353E-1,-7.3248684E-2,3.4766322E-1,-4.8902735E-1,-9.858512E-2,-5.595686E-1,1.0690306E0,3.6560336E-1,-5.384469E-1,3.205158E-1,7.298797E-1,-2.9429743E-1,-8.1868924E-2,1.5103291E-2,3.3723917E-2,-7.7221364E-1,5.6392713E-3,1.1819557E0,2.0709361E-1,1.1284888E0,-8.6629313E-1,-1.3922384E-2,-9.202252E-2,5.96261E-1,1.4709907E-2,1.1650248E-1,-6.4969055E-2,2.40909E-2,-6.412408E-2,8.645534E-2,-8.774303E-2,-2.9894335E-3,2.329181E-2,1.2403468E-1,-1.0032448E-2,5.5125475E-2,1.20356046E-1,2.5206128E-2,-4.825599E-3,-9.059421E-2,-3.5480987E-2,6.351858E-2,-5.3001862E-2,4.639807E-2,8.073555E-2,3.8876722E-4],"categories":[],"categories_nodes":[],"categories_segments":[],"categories_sizes":[],"default_left":[0,0,0,0,0,0,0,0,0,0,0,0,0,0,0,0,0,0,0,0,0,0,0,0,0,0,0,0,0,0,0,0,0,0,0,0,0,0,0,0,0,0,0,0,0,0,0,0,0,0,0],"id":15,"left_children":[1,3,5,7,9,11,13,15,17,-1,19,21,23,25,27,29,31,-1,-1,33,35,-1,37,39,41,43,45,47,49,-1,-1,-1,-1,-1,-1,-1,-1,-1,-1,-1,-1,-1,-1,-1,-1,-1,-1,-1,-1,-1,-1],"loss_changes":[3.323846E1,6.2779846E0,1.3660142E1,1.8931816E0,6.407852E-1,6.130518E0,1.4207909E1,1.874862E0,1.0744103E0,0E0,1.3623221E0,1.8519077E0,6.6446414E0,6.0922356E0,4.846636E0,9.7691727E-1,7.723222E-1,0E0,0E0,2.6588864E0,5.860357E-1,0E0,5.4478455E-1,5.1676836E0,3.256712E-1,6.6425705E-1,3.471387E0,4.5665994E0,3.1707096E0,0E0,0E0,0E0,0E0,0E0,0E0,0E0,0E0,0E0,0E0,0E0,0E0,0E0,0E0,0E0,0E0,0E0,0E0,0E0,0E0,0E0,0E0],"parents":[2147483647,0,0,1,1,2,2,3,3,4,4,5,5,6,6,7,7,8,8,10,10,11,11,12,12,13,13,14,14,15,15,16,16,19,19,20,20,22,22,23,23,24,24,25,25,26,26,27,27,28,28],"right_children":[2,4,6,8,10,12,14,16,18,-1,20,22,24,26,28,30,32,-1,-1,34,36,-1,38,40,42,44,46,48,50,-1,-1,-1,-1,-1,-1,-1,-1,-1,-1,-1,-1,-1,-1,-1,-1,-1,-1,-1,-1,-1,-1],"split_conditions":[2.6286175E1,1.7616539E1,3.6358505E1,1.7083333E3,2.3398672E1,1.5104793E1,3.727669E1,3.5416932E0,4.4443264E0,-9.858512E-2,1.6499227E0,5.092631E0,2.6575195E1,7.0396835E-1,1.5779373E1,2.4304678E1,6.653496E-1,-8.1868924E-2,1.5103291E-2,6.765759E-1,2.736872E1,5.6392713E-3,1.5343703E-1,3.6195747E1,1.1120647E1,2.7402773E-1,2.351929E1,6.616269E-1,5.9973797E1,1.4709907E-2,1.1650248E-1,-6.4969055E-2,2.40909E-2,-6.412408E-2,8.645534E-2,-8.774303E-2,-2.9894335E-3,2.329181E-2,1.2403468E-1,-1.0032448E-2,5.5125475E-2,1.20356046E-1,2.5206128E-2,-4.825599E-3,-9.059421E-2,-3.5480987E-2,6.351858E-2,-5.3001862E-2,4.639807E-2,8.073555E-2,3.8876722E-4],"split_indices":[0,1,1,5,0,1,0,3,3,0,3,2,2,4,2,0,4,0,0,4,2,0,4,0,3,3,2,4,1,0,0,0,0,0,0,0,0,0,0,0,0,0,0,0,0,0,0,0,0,0,0],"split_type":[0,0,0,0,0,0,0,0,0,0,0,0,0,0,0,0,0,0,0,0,0,0,0,0,0,0,0,0,0,0,0,0,0,0,0,0,0,0,0,0,0,0,0,0,0,0,0,0,0,0,0],"sum_hessian":[1.9546973E2,4.8189865E1,1.4727986E2,9.2715E0,3.8918365E1,7.165884E1,7.562103E1,5.765596E0,3.5059037E0,2.932648E1,9.591886E0,1.5777652E1,5.5881184E1,3.449765E1,4.1123383E1,3.5280683E0,2.2375276E0,2.129848E0,1.3760558E0,2.7528043E0,6.8390813E0,1.7333637E0,1.4044288E1,4.732054E1,8.560642E0,2.0827902E1,1.3669748E1,1.6742083E1,2.43813E1,2.0801773E0,1.4478912E0,1.2160964E0,1.0214312E0,1.6447797E0,1.1080245E0,5.830633E0,1.0084481E0,1.1031746E0,1.2941113E1,2.5368713E1,2.1951826E1,7.541413E0,1.0192292E0,1.065318E0,1.9762583E1,9.260084E0,4.409664E0,9.390988E0,7.3510933E0,1.7708054E1,6.6732464E0],"tree_param":{"num_deleted":"0","num_feature":"6","num_nodes":"51","size_leaf_vector":"1"}},{"base_weights":[-1.2300688E-2,-5.779638E-1,2.553914E-1,2.3271616E-1,-8.2708484E-1,4.2052138E-1,-1.696759E-1,-1.8681361E-1,5.427192E-1,-5.024729E-1,-9.560851E-1,1.9413342E-1,7.432783E-1,-7.644628E-1,6.175651E-2,-7.764637E-2,1.9791447E-1,-1.6166283E-2,7.348085E-1,4.4136178E-2,-6.3850564E-1,-1.6771678E-2,-9.842493E-2,1.2109902E0,9.953501E-2,6.229014E-1,1.2830815E-1,-9.191822E-2,8.496099E-3,-6.123875E-1,2.4151595E-1,-6.1425056E-2,6.1793502E-2,1.1496204E-1,1.3409887E-2,-9.331751E-2,-3.2369085E-2,1.4255096E-1,3.1480126E-2,-1.5865687E-2,5.3687077E-2,2.8938064E-2,8.352847E-2,-8.156985E-2,-1.1385003E-2,-9.3165366E-4,7.9520546E-2],"categories":[],"categories_nodes":[],"categories_segments":[],"categories_sizes":[],"default_left":[0,0,0,0,0,0,0,0,0,0,0,0,0,0,0,0,0,0,0,0,0,0,0,0,0,0,0,0,0,0,0,0,0,0,0,0,0,0,0,0,0,0,0,0,0,0,0],"id":16,"left_children":[1,3,5,7,9,11,13,15,17,19,21,23,25,27,29,-1,31,-1,33,-1,35,-1,-1,37,39,41,-1,-1,-1,43,45,-1,-1,-1,-1,-1,-1,-1,-1,-1,-1,-1,-1,-1,-1,-1,-1],"loss_changes":[2.9102655E1,1.2659344E1,9.230531E0,2.0900605E0,1.5061111E0,6.743637E0,5.170882E0,1.7964594E0,1.3432119E0,2.2845666E0,5.641079E-1,5.339233E0,1.7030487E0,1.458148E0,3.5072057E0,0E0,2.146311E0,0E0,1.6625412E0,0E0,1.0006037E0,0E0,0E0,4.6275997E-1,6.0716953E0,2.1263075E0,0E0,0E0,0E0,5.272894E-1,3.1464872E0,0E0,0E0,0E0,0E0,0E0,0E0,0E0,0E0,0E0,0E0,0E0,0E0,0E0,0E0,0E0,0E0],"parents":[2147483647,0,0,1,1,2,2,3,3,4,4,5,5,6,6,7,7,8,8,9,9,10,10,11,11,12,12,13,13,14,14,16,16,18,18,20,20,23,23,24,24,25,25,29,29,30,30],"right_children":[2,4,6,8,10,12,14,16,18,20,22,24,26,28,30,-1,32,-1,34,-1,36,-1,-1,38,40,42,-1,-1,-1,44,46,-1,-1,-1,-1,-1,-1,-1,-1,-1,-1,-1,-1,-1,-1,-1,-1],"split_conditions":[2.912781E1,1.7616539E1,5.0461613E1,2.4304678E1,3.67795E1,6.8691E-1,3.5683792E1,1.4816451E3,9.130418E0,3.3343807E-1,6.103181E1,9.01051E0,4.348956E1,9.443874E-1,4.0837967E-1,-7.764637E-2,1.3666097E1,-1.6166283E-2,1.2665988E1,4.4136178E-2,2.7703556E1,-1.6771678E-2,-9.842493E-2,1.0670356E3,3.9558224E1,2.563047E0,1.2830815E-1,-9.191822E-2,8.496099E-3,1.9595755E1,4.396793E1,-6.1425056E-2,6.1793502E-2,1.1496204E-1,1.3409887E-2,-9.331751E-2,-3.2369085E-2,1.4255096E-1,3.1480126E-2,-1.5865687E-2,5.3687077E-2,2.8938064E-2,8.352847E-2,-8.156985E-2,-1.1385003E-2,-9.3165366E-4,7.9520546E-2],"split_indices":[0,1,1,0,1,4,0,5,2,3,5,1,0,4,4,0,2,0,1,0,1,0,0,5,0,3,0,0,0,2,0,0,0,0,0,0,0,0,0,0,0,0,0,0,0,0,0],"split_type":[0,0,0,0,0,0,0,0,0,0,0,0,0,0,0,0,0,0,0,0,0,0,0,0,0,0,0,0,0,0,0,0,0,0,0,0,0,0,0,0,0,0,0,0,0,0,0],"sum_hessian":[1.902189E2,6.0730194E1,1.2948871E2,1.4290957E1,4.6439236E1,9.326706E1,3.6221657E1,6.241569E0,8.049388E0,1.4598695E1,3.1840542E1,5.5758472E1,3.7508587E1,9.500909E0,2.6720747E1,2.062414E0,4.179155E0,1.7587044E0,6.290684E0,1.5562763E0,1.30424185E1,1.3381498E0,3.0502392E1,3.741285E0,5.2017185E1,3.243048E1,5.078104E0,7.967529E0,1.5333799E0,5.1184688E0,2.1602278E1,1.2669365E0,2.9122186E0,3.1805956E0,3.1100883E0,5.7221923E0,7.3202257E0,2.5421414E0,1.1991436E0,3.310818E1,1.8909006E1,1.353618E1,1.8894302E1,3.1838603E0,1.9346087E0,1.55437975E1,6.05848E0],"tree_param":{"num_deleted":"0","num_feature":"6","num_nodes":"47","size_leaf_vector":"1"}},{"base_weights":[-1.145503E-2,-6.8761516E-1,1.9097702E-1,1.1517154E-3,-8.733174E-1,9.422123E-1,9.394621E-2,3.2570946E-1,-4.869966E-1,-9.766318E-2,-5.0237846E-1,2.7127266E-3,1.0476675E0,-1.6434349E-1,3.637015E-1,-7.3242836E-2,8.9263014E-2,-8.0770545E-2,1.1335718E-2,7.889229E-2,-7.32993E-1,6.27543E-1,1.3278788E-1,7.563154E-2,-6.8657386E-1,-5.8444753E-2,5.687665E-1,-7.5516544E-2,6.387777E-2,-6.0730733E-2,8.2095094E-2,-4.3291496E-3,-8.5146576E-2,-4.2652603E-2,1.0116911E-1,-1.8041192E-2,6.016465E-2,-9.4958685E-2,-2.2510732E-2,1.8349363E-2,-9.0212904E-2,3.5683226E-2,1.2183376E-1],"categories":[],"categories_nodes":[],"categories_segments":[],"categories_sizes":[],"default_left":[0,0,0,0,0,0,0,0,0,0,0,0,0,0,0,0,0,0,0,0,0,0,0,0,0,0,0,0,0,0,0,0,0,0,0,0,0,0,0,0,0,0,0],"id":17,"left_children":[1,3,5,7,9,11,13,15,17,-1,19,-1,21,23,25,27,-1,-1,-1,29,31,33,-1,35,37,39,41,-1,-1,-1,-1,-1,-1,-1,-1,-1,-1,-1,-1,-1,-1,-1,-1],"loss_changes":[2.5682236E1,5.5300293E0,1.0440432E1,1.7712146E0,8.1422806E-1,1.5553236E0,9.05009E0,1.5836575E0,9.513564E-1,0E0,1.3281796E0,0E0,8.9598274E-1,8.399104E0,5.5239058E0,2.844208E0,0E0,0E0,0E0,2.3289816E0,5.254774E-1,3.5791106E0,0E0,6.376156E0,2.3434896E0,4.583484E0,5.4549723E0,0E0,0E0,0E0,0E0,0E0,0E0,0E0,0E0,0E0,0E0,0E0,0E0,0E0,0E0,0E0,0E0],"parents":[2147483647,0,0,1,1,2,2,3,3,4,4,5,5,6,6,7,7,8,8,10,10,12,12,13,13,14,14,15,15,19,19,20,20,21,21,23,23,24,24,25,25,26,26],"right_children":[2,4,6,8,10,12,14,16,18,-1,20,-1,22,24,26,28,-1,-1,-1,30,32,34,-1,36,38,40,42,-1,-1,-1,-1,-1,-1,-1,-1,-1,-1,-1,-1,-1,-1,-1,-1],"split_conditions":[2.6286175E1,1.7616539E1,1.5104793E1,1.7083333E3,2.3398672E1,5.092631E0,3.7024513E1,1.4816451E3,4.4443264E0,-9.766318E-2,1.6499227E0,2.7127266E-3,3.1653688E1,4.4977642E1,1.2309589E1,2.4107658E1,8.9263014E-2,-8.0770545E-2,1.1335718E-2,6.765759E-1,2.388774E1,3.8734472E-1,1.3278788E-1,2.2733997E1,3.3447742E1,7.5489783E0,8.616673E-1,-7.5516544E-2,6.387777E-2,-6.0730733E-2,8.2095094E-2,-4.3291496E-3,-8.5146576E-2,-4.2652603E-2,1.0116911E-1,-1.8041192E-2,6.016465E-2,-9.4958685E-2,-2.2510732E-2,1.8349363E-2,-9.0212904E-2,3.5683226E-2,1.2183376E-1],"split_indices":[0,1,1,5,0,2,0,5,3,0,3,0,0,1,2,0,0,0,0,4,0,4,0,2,0,3,4,0,0,0,0,0,0,0,0,0,0,0,0,0,0,0,0],"split_type":[0,0,0,0,0,0,0,0,0,0,0,0,0,0,0,0,0,0,0,0,0,0,0,0,0,0,0,0,0,0,0,0,0,0,0,0,0,0,0,0,0,0,0],"sum_hessian":[1.8567134E2,4.2227383E1,1.4344395E2,9.178449E0,3.304893E1,1.5411794E1,1.2803217E2,5.712869E0,3.46558E0,2.4572191E1,8.47674E0,1.7224569E0,1.3689337E1,6.5605705E1,6.242646E1,3.8642986E0,1.8485703E0,2.0337625E0,1.4318175E0,2.5946796E0,5.882061E0,6.773409E0,6.915928E0,4.553614E1,2.0069567E1,2.0643927E1,4.178253E1,1.9429165E0,1.9213822E0,1.4424253E0,1.1522543E0,1.0624293E0,4.8196316E0,1.7797135E0,4.9936953E0,3.1069666E1,1.4466474E1,1.2109817E1,7.95975E0,1.665141E1,3.9925172E0,3.267203E1,9.110503E0],"tree_param":{"num_deleted":"0","num_feature":"6","num_nodes":"43","size_leaf_vector":"1"}},{"base_weights":[-1.135711E-2,-6.6725E-1,1.75059E-1,4.568941E-4,-8.602486E-1,4.426067E-1,-7.46088E-2,3.0259624E-1,-4.6557587E-1,-9.713992E-2,-4.8060584E-1,3.2951012E-1,9.984576E-1,-2.440605E-1,6.262914E-1,6.2234515E-1,-2.7315143E-1,-7.8449756E-2,1.0616273E-2,7.520003E-2,-7.142966E-1,8.281306E-1,1.7267406E-1,1.1574863E0,4.8720458E-1,-4.1423282E-1,3.629E-1,-2.500661E-1,9.24213E-1,-1.6196875E-2,8.94896E-2,-6.2169652E-2,2.256877E-2,-5.919993E-2,7.458579E-2,-8.355238E-2,-2.9079656E-3,4.423321E-2,1.1612582E-1,-1.0516866E-2,4.882392E-2,2.836524E-2,1.3106312E-1,-2.5092999E-2,9.8679475E-2,-5.478391E-2,2.4975065E-2,-5.0637152E-2,6.2252946E-2,-8.690745E-2,6.622731E-2,-2.3838814E-2,1.07453786E-1],"categories":[],"categories_nodes":[],"categories_segments":[],"categories_sizes":[],"default_left":[0,0,0,0,0,0,0,0,0,0,0,0,0,0,0,0,0,0,0,0,0,0,0,0,0,0,0,0,0,0,0,0,0,0,0,0,0,0,0,0,0,0,0,0,0,0,0,0,0,0,0,0,0],"id":18,"left_children":[1,3,5,7,9,11,13,15,17,-1,19,21,23,25,27,29,31,-1,-1,33,35,37,39,41,43,45,47,49,51,-1,-1,-1,-1,-1,-1,-1,-1,-1,-1,-1,-1,-1,-1,-1,-1,-1,-1,-1,-1,-1,-1,-1,-1],"loss_changes":[2.240297E1,5.2255898E0,9.566717E0,1.5618377E0,8.604965E-1,4.0111485E0,9.02307E0,1.4086547E0,8.7885886E-1,0E0,1.2360842E0,4.459932E0,3.4501743E-1,6.4368124E0,4.100679E0,1.1348833E0,6.788534E-1,0E0,0E0,2.05208E0,5.159552E-1,1.2625341E0,4.087961E0,6.721039E-1,1.8625526E0,4.3952913E0,3.443418E0,3.1435955E0,2.2264547E0,0E0,0E0,0E0,0E0,0E0,0E0,0E0,0E0,0E0,0E0,0E0,0E0,0E0,0E0,0E0,0E0,0E0,0E0,0E0,0E0,0E0,0E0,0E0,0E0],"parents":[2147483647,0,0,1,1,2,2,3,3,4,4,5,5,6,6,7,7,8,8,10,10,11,11,12,12,13,13,14,14,15,15,16,16,19,19,20,20,21,21,22,22,23,23,24,24,25,25,26,26,27,27,28,28],"right_children":[2,4,6,8,10,12,14,16,18,-1,20,22,24,26,28,30,32,-1,-1,34,36,38,40,42,44,46,48,50,52,-1,-1,-1,-1,-1,-1,-1,-1,-1,-1,-1,-1,-1,-1,-1,-1,-1,-1,-1,-1,-1,-1,-1,-1],"split_conditions":[2.6286175E1,1.7616539E1,3.5848953E1,1.7083333E3,2.3398672E1,2.6382814E1,4.396793E1,3.5416932E0,4.4443264E0,-9.713992E-2,1.6499227E0,1.5104793E1,2.8031816E1,8.616673E-1,3.8270628E-1,6.343294E-1,6.526296E-1,-7.8449756E-2,1.0616273E-2,6.765759E-1,2.5868635E1,3.308919E1,3.6195747E1,3.1207302E-1,3.4154022E1,2.7207151E1,3.3447742E1,2.3340555E1,3.4368613E2,-1.6196875E-2,8.94896E-2,-6.2169652E-2,2.256877E-2,-5.919993E-2,7.458579E-2,-8.355238E-2,-2.9079656E-3,4.423321E-2,1.1612582E-1,-1.0516866E-2,4.882392E-2,2.836524E-2,1.3106312E-1,-2.5092999E-2,9.8679475E-2,-5.478391E-2,2.4975065E-2,-5.0637152E-2,6.2252946E-2,-8.690745E-2,6.622731E-2,-2.3838814E-2,1.07453786E-1],"split_indices":[0,1,1,5,0,2,0,3,3,0,3,1,1,4,4,3,4,0,0,4,2,0,0,4,0,2,0,2,5,0,0,0,0,0,0,0,0,0,0,0,0,0,0,0,0,0,0,0,0,0,0,0,0],"split_type":[0,0,0,0,0,0,0,0,0,0,0,0,0,0,0,0,0,0,0,0,0,0,0,0,0,0,0,0,0,0,0,0,0,0,0,0,0,0,0,0,0,0,0,0,0,0,0,0,0,0,0,0,0],"sum_hessian":[1.8127153E2,3.9547363E1,1.4172417E2,9.091529E0,3.0455835E1,6.803938E1,7.3684784E1,5.728387E0,3.363142E0,2.2352755E1,8.10308E0,5.7859722E1,1.0179664E1,5.9863743E1,1.3821044E1,3.630955E0,2.0974317E0,1.920013E0,1.4431292E0,2.5992582E0,5.5038214E0,1.2820371E1,4.503935E1,6.800351E0,3.3793128E0,4.70031E1,1.2860639E1,3.5472345E0,1.0273809E1,1.0410056E0,2.5899496E0,1.0897341E0,1.0076976E0,1.3617831E0,1.237475E0,4.490088E0,1.0137336E0,7.0191913E0,5.80118E0,2.4305786E1,2.0733562E1,1.4394029E0,5.360948E0,1.5649132E0,1.8143995E0,3.9275112E1,7.7279897E0,2.7391765E0,1.0121462E1,2.1416078E0,1.4056268E0,1.1092364E0,9.164574E0],"tree_param":{"num_deleted":"0","num_feature":"6","num_nodes":"53","size_leaf_vector":"1"}},{"base_weights":[-9.844837E-3,-7.502665E-1,1.3888057E-1,2.821431E-1,-8.4936446E-1,2.8651556E-1,-2.7946445E-1,-2.3822002E-2,6.771237E-2,-9.659562E-2,-4.5619762E-1,2.0304905E-2,4.7685328E-1,-8.185085E-1,5.4094563E-3,-6.4340186E-1,4.1026097E-2,-3.7391943E-1,3.366343E-1,3.6691803E-1,1.1166921E0,-9.382711E-2,5.669373E-4,-5.779539E-1,1.5666391E-1,-8.317004E-2,-1.4691517E-2,-1.4148683E-3,-7.506983E-2,3.4643903E-3,8.198861E-2,2.4759576E-2,9.5224224E-2,6.9118417E-3,1.24912694E-1,-7.829618E-2,-1.160064E-2,-6.7781466E-3,7.391518E-2],"categories":[],"categories_nodes":[],"categories_segments":[],"categories_sizes":[],"default_left":[0,0,0,0,0,0,0,0,0,0,0,0,0,0,0,0,0,0,0,0,0,0,0,0,0,0,0,0,0,0,0,0,0,0,0,0,0,0,0],"id":19,"left_children":[1,3,5,7,9,11,13,-1,-1,-1,15,17,19,21,23,25,-1,27,29,31,33,-1,-1,35,37,-1,-1,-1,-1,-1,-1,-1,-1,-1,-1,-1,-1,-1,-1],"loss_changes":[1.9688847E1,3.2991676E0,9.279235E0,8.538909E-1,8.215313E-1,5.5937176E0,6.048251E0,0E0,0E0,0E0,1.5928553E0,6.005524E0,4.1228714E0,1.349184E0,2.4502754E0,5.440469E-1,0E0,2.8988688E0,3.865916E0,3.7088456E0,1.1565609E0,0E0,0E0,4.508325E-1,2.9294105E0,0E0,0E0,0E0,0E0,0E0,0E0,0E0,0E0,0E0,0E0,0E0,0E0,0E0,0E0],"parents":[2147483647,0,0,1,1,2,2,3,3,4,4,5,5,6,6,10,10,11,11,12,12,13,13,14,14,15,15,17,17,18,18,19,19,20,20,23,23,24,24],"right_children":[2,4,6,8,10,12,14,-1,-1,-1,16,18,20,22,24,26,-1,28,30,32,34,-1,-1,36,38,-1,-1,-1,-1,-1,-1,-1,-1,-1,-1,-1,-1,-1,-1],"split_conditions":[2.4389244E1,7.862218E0,5.0697758E1,1.932973E1,2.1921915E1,5.2609086E-1,3.5683792E1,-2.3822002E-2,6.771237E-2,-9.659562E-2,2.36091E1,3.458386E1,4.298725E1,9.443874E-1,4.0837967E-1,6.8691E-1,4.1026097E-2,2.8031816E1,1.9838411E1,2.7082747E1,2.2383963E2,-9.382711E-2,5.669373E-4,1.9595755E1,4.464725E1,-8.317004E-2,-1.4691517E-2,-1.4148683E-3,-7.506983E-2,3.4643903E-3,8.198861E-2,2.4759576E-2,9.5224224E-2,6.9118417E-3,1.24912694E-1,-7.829618E-2,-1.160064E-2,-6.7781466E-3,7.391518E-2],"split_indices":[0,1,1,2,0,4,0,0,0,0,2,0,0,4,4,4,0,1,2,2,5,0,0,2,0,0,0,0,0,0,0,0,0,0,0,0,0,0,0],"split_type":[0,0,0,0,0,0,0,0,0,0,0,0,0,0,0,0,0,0,0,0,0,0,0,0,0,0,0,0,0,0,0,0,0,0,0,0,0,0,0],"sum_hessian":[1.7684904E2,2.8904558E1,1.4794449E2,2.3697035E0,2.6534855E1,1.0958632E2,3.8358166E1,1.1938112E0,1.1758924E0,1.9342167E1,7.192687E0,4.6148563E1,6.3437756E1,1.2614855E1,2.5743309E1,6.126459E0,1.0662279E0,2.04637E1,2.5684866E1,5.5478973E1,7.9587812E0,1.0893474E1,1.7213811E0,4.719585E0,2.1023726E1,3.9523222E0,2.1741369E0,1.0998874E1,9.464825E0,1.6466452E1,9.218413E0,4.7266407E1,8.212569E0,1.0640373E0,6.894744E0,2.7875721E0,1.932013E0,1.5813912E1,5.2098126E0],"tree_param":{"num_deleted":"0","num_feature":"6","num_nodes":"39","size_leaf_vector":"1"}},{"base_weights":[-9.764116E-3,-8.46466E-1,1.0885866E-1,-9.710946E-2,-9.606485E-2,2.8455895E-1,-2.2315651E-1,-6.475881E-2,5.0735082E-2,1.986451E-2,4.9419737E-1,-9.539073E-2,6.3598685E-2,1.2147734E-1,-6.3947126E-2,1.9654632E-1,6.9297147E-1,2.5809154E-1,-3.20466E-1,-4.1147593E-2,2.5547868E-2,-4.092168E-2,4.507221E-2,3.7383735E-2,9.38168E-2,4.9972694E-2,-3.593273E-2,-5.124424E-2,9.063818E-2],"categories":[],"categories_nodes":[],"categories_segments":[],"categories_sizes":[],"default_left":[0,0,0,0,0,0,0,0,0,0,0,0,0,0,0,0,0,0,0,0,0,0,0,0,0,0,0,0,0],"id":20,"left_children":[1,3,5,7,-1,9,11,-1,-1,13,15,-1,17,-1,19,21,23,25,27,-1,-1,-1,-1,-1,-1,-1,-1,-1,-1],"loss_changes":[1.7376783E1,1.7666941E0,9.012762E0,1.6551313E0,0E0,5.5814304E0,1.1302842E1,0E0,0E0,4.6418676E0,3.1880836E0,0E0,3.0308664E0,0E0,4.938219E0,3.8633416E0,2.2544565E0,4.1709785E0,3.69445E0,0E0,0E0,0E0,0E0,0E0,0E0,0E0,0E0,0E0,0E0],"parents":[2147483647,0,0,1,1,2,2,3,3,5,5,6,6,9,9,10,10,12,12,14,14,15,15,16,16,17,17,18,18],"right_children":[2,4,6,8,-1,10,12,-1,-1,14,16,-1,18,-1,20,22,24,26,28,-1,-1,-1,-1,-1,-1,-1,-1,-1,-1],"split_conditions":[2.2509281E1,1.5104793E1,4.4977642E1,1.952624E1,-9.606485E-2,5.4281735E-1,3.3447742E1,-6.475881E-2,5.0735082E-2,3.7191186E0,2.563047E0,-9.539073E-2,6.3019314E1,1.2147734E-1,3.4976322E1,6.5589746E2,1.5891982E1,4.7456822E0,3.3685272E1,-4.1147593E-2,2.5547868E-2,-4.092168E-2,4.507221E-2,3.7383735E-2,9.38168E-2,4.9972694E-2,-3.593273E-2,-5.124424E-2,9.063818E-2],"split_indices":[0,1,1,2,0,4,0,0,0,1,3,0,1,0,0,5,2,3,2,0,0,0,0,0,0,0,0,0,0],"split_type":[0,0,0,0,0,0,0,0,0,0,0,0,0,0,0,0,0,0,0,0,0,0,0,0,0,0,0,0,0],"sum_hessian":[1.7314919E2,2.0738073E1,1.524111E2,2.986798E0,1.7751276E1,9.976111E1,5.2649998E1,1.5258582E0,1.46094E0,4.457474E1,5.5186363E1,1.4182235E1,3.8467766E1,2.0371304E0,4.2537613E1,2.2893562E1,3.22928E1,2.5753847E1,1.2713917E1,2.0234602E1,2.2303009E1,6.586454E0,1.630711E1,1.5127861E1,1.7164942E1,1.864679E1,7.107058E0,1.1497158E1,1.2167586E0],"tree_param":{"num_deleted":"0","num_feature":"6","num_nodes":"29","size_leaf_vector":"1"}},{"base_weights":[-9.51455E-3,-8.6639285E-1,9.558155E-2,3.623505E-3,-9.543278E-2,3.1240666E-1,-1.419394E-1,1.15566306E-1,2.391764E-1,-5.3124934E-1,1.6752489E-1,1.2669E-1,8.108979E-1,-8.3584315E-1,-8.751934E-2,-3.7605327E-1,3.0992857E-1,-1.5691018E-2,3.3330914E-2,1.5026376E-2,9.540751E-2,-1.7947042E-3,-8.798352E-2,9.575514E-2,-3.1958167E-2,-6.973764E-2,-1.7179399E-3,1.1389524E-2,8.443684E-2],"categories":[],"categories_nodes":[],"categories_segments":[],"categories_sizes":[],"default_left":[0,0,0,0,0,0,0,0,0,0,0,0,0,0,0,0,0,0,0,0,0,0,0,0,0,0,0,0,0],"id":21,"left_children":[1,3,5,-1,-1,7,9,-1,11,13,15,17,19,21,23,25,27,-1,-1,-1,-1,-1,-1,-1,-1,-1,-1,-1,-1],"loss_changes":[1.5451029E1,1.522294E0,7.919341E0,0E0,0E0,4.679215E0,8.963435E0,0E0,4.726966E0,4.368335E0,3.352102E0,3.7988772E0,1.0069613E0,6.8111706E-1,3.8208222E0,1.0407126E0,3.4313748E0,0E0,0E0,0E0,0E0,0E0,0E0,0E0,0E0,0E0,0E0,0E0,0E0],"parents":[2147483647,0,0,1,1,2,2,5,5,6,6,8,8,9,9,10,10,11,11,12,12,13,13,14,14,15,15,16,16],"right_children":[2,4,6,-1,-1,8,10,-1,12,14,16,18,20,22,24,26,28,-1,-1,-1,-1,-1,-1,-1,-1,-1,-1,-1,-1],"split_conditions":[2.1921915E1,7.862218E0,3.6986866E1,3.623505E-3,-9.543278E-2,6.0499797E0,3.7024513E1,1.15566306E-1,2.6575195E1,6.9736266E-1,8.953192E0,5.3630376E-1,3.3907634E-1,2.7402773E-1,7.269663E-1,1.2419723E3,8.616673E-1,-1.5691018E-2,3.3330914E-2,1.5026376E-2,9.540751E-2,-1.7947042E-3,-8.798352E-2,9.575514E-2,-3.1958167E-2,-6.973764E-2,-1.7179399E-3,1.1389524E-2,8.443684E-2],"split_indices":[0,1,1,0,0,1,0,0,2,4,2,4,4,3,4,5,4,0,0,0,0,0,0,0,0,0,0,0,0],"split_type":[0,0,0,0,0,0,0,0,0,0,0,0,0,0,0,0,0,0,0,0,0,0,0,0,0,0,0,0,0],"sum_hessian":[1.6965451E2,1.7743435E1,1.5191107E2,1.6273246E0,1.611611E1,7.925056E1,7.266052E1,5.1513095E0,7.409924E1,3.186158E1,4.079894E1,6.2937805E1,1.1161441E1,1.836882E1,1.349276E1,8.128888E0,3.267005E1,2.662862E1,3.6309185E1,2.3531709E0,8.8082695E0,1.0094358E0,1.7359385E1,1.8836505E0,1.160911E1,3.7911701E0,4.3377175E0,2.4790113E1,7.879939E0],"tree_param":{"num_deleted":"0","num_feature":"6","num_nodes":"29","size_leaf_vector":"1"}},{"base_weights":[-8.669423E-3,-8.533207E-1,8.82042E-2,3.3931208E-3,-9.4778635E-2,2.1532813E-1,-2.7880487E-1,8.615673E-2,5.6290025E-1,-9.1934435E-2,-4.0578537E-2,1.0585534E-1,1.7045008E-2,2.2114064E-1,8.5447574E-1,-6.0905266E-1,1.0409442E-1,-1.0203084E-2,6.0525723E-2,4.8736643E-2,-5.3441595E-2,-2.7940074E-2,1.0224374E-1,-7.918583E-2,-1.8115813E-2,4.6714924E-2,-1.588963E-2],"categories":[],"categories_nodes":[],"categories_segments":[],"categories_sizes":[],"default_left":[0,0,0,0,0,0,0,0,0,0,0,0,0,0,0,0,0,0,0,0,0,0,0,0,0,0,0],"id":22,"left_children":[1,3,5,-1,-1,7,9,11,13,-1,15,-1,17,19,21,23,25,-1,-1,-1,-1,-1,-1,-1,-1,-1,-1],"loss_changes":[1.3771782E1,1.4835262E0,7.108428E0,0E0,0E0,5.01451E0,5.959878E0,5.586564E0,2.8377743E0,0E0,2.5054786E0,0E0,5.586608E0,3.3446295E0,3.3406868E0,3.391564E-1,2.415759E0,0E0,0E0,0E0,0E0,0E0,0E0,0E0,0E0,0E0,0E0],"parents":[2147483647,0,0,1,1,2,2,5,5,6,6,7,7,8,8,10,10,12,12,13,13,14,14,15,15,16,16],"right_children":[2,4,6,-1,-1,8,10,12,14,-1,16,-1,18,20,22,24,26,-1,-1,-1,-1,-1,-1,-1,-1,-1,-1],"split_conditions":[2.1921915E1,7.862218E0,5.0461613E1,3.3931208E-3,-9.4778635E-2,3.9558224E1,3.3447742E1,6.0499797E0,1.1347677E3,-9.1934435E-2,4.0837967E-1,1.0585534E-1,2.7082747E1,8.0794946E2,9.156851E-1,1.9595755E1,1.2325703E3,-1.0203084E-2,6.0525723E-2,4.8736643E-2,-5.3441595E-2,-2.7940074E-2,1.0224374E-1,-7.918583E-2,-1.8115813E-2,4.6714924E-2,-1.588963E-2],"split_indices":[0,1,1,0,0,0,0,1,5,0,4,0,2,5,2,2,5,0,0,0,0,0,0,0,0,0,0],"split_type":[0,0,0,0,0,0,0,0,0,0,0,0,0,0,0,0,0,0,0,0,0,0,0,0,0,0,0],"sum_hessian":[1.6638907E2,1.6316364E1,1.5007271E2,1.6317012E0,1.4684664E1,1.11770966E2,3.8301735E1,8.239693E1,2.9374043E1,9.608208E0,2.8693527E1,4.5176325E0,7.7879295E1,1.4332805E1,1.5041239E1,5.169758E0,2.352377E1,6.545527E1,1.2424021E1,1.086086E1,3.4719448E0,1.855001E0,1.3186237E1,3.0262764E0,2.1434813E0,9.555814E0,1.3967956E1],"tree_param":{"num_deleted":"0","num_feature":"6","num_nodes":"27","size_leaf_vector":"1"}},{"base_weights":[-8.689791E-3,-8.396414E-1,8.049487E-2,3.1775148E-3,-9.4093695E-2,1.5464595E-1,-4.796777E-1,1.02768615E-1,9.4580907E-1,-6.264834E-1,7.289307E-2,8.294259E-1,4.5680366E-2,2.6525605E-1,1.1749182E-1,-9.116791E-2,-2.7966204E-1,1.086241E-1,5.0901975E-2,-2.4005422E-2,2.2793928E-2,5.6424778E-2,-1.9599328E-2,2.2027506E-2,-9.042293E-2],"categories":[],"categories_nodes":[],"categories_segments":[],"categories_sizes":[],"default_left":[0,0,0,0,0,0,0,0,0,0,0,0,0,0,0,0,0,0,0,0,0,0,0,0,0],"id":23,"left_children":[1,3,5,-1,-1,7,9,11,13,15,-1,17,19,21,-1,-1,23,-1,-1,-1,-1,-1,-1,-1,-1],"loss_changes":[1.2250847E1,1.4441595E0,6.278893E0,0E0,0E0,5.348072E0,3.5981765E0,5.173645E0,9.4228363E-1,1.3598428E0,0E0,1.9526386E-1,6.1757317E0,5.6804985E-1,0E0,0E0,2.9498658E0,0E0,0E0,0E0,0E0,0E0,0E0,0E0,0E0],"parents":[2147483647,0,0,1,1,2,2,5,5,6,6,7,7,8,8,9,9,11,11,12,12,13,13,16,16],"right_children":[2,4,6,-1,-1,8,10,12,14,16,-1,18,20,22,-1,-1,24,-1,-1,-1,-1,-1,-1,-1,-1],"split_conditions":[2.1921915E1,7.862218E0,6.3019314E1,3.1775148E-3,-9.4093695E-2,4.684097E1,3.3685272E1,9.01051E0,4.3596E-1,3.818302E1,7.289307E-2,3.7191186E0,5.2609086E-1,3.609701E1,1.1749182E-1,-9.116791E-2,1.8712069E1,1.086241E-1,5.0901975E-2,-2.4005422E-2,2.2793928E-2,5.6424778E-2,-1.9599328E-2,2.2027506E-2,-9.042293E-2],"split_indices":[0,1,1,0,0,0,2,1,4,0,0,1,4,1,0,0,2,0,0,0,0,0,0,0,0],"split_type":[0,0,0,0,0,0,0,0,0,0,0,0,0,0,0,0,0,0,0,0,0,0,0,0,0],"sum_hessian":[1.633984E2,1.5021879E1,1.4837653E2,1.6358075E0,1.3386072E1,1.3167093E2,1.6705593E1,1.246288E2,7.0421367E0,1.5325682E1,1.3799108E0,8.092552E0,1.1653625E2,2.3171053E0,4.7250314E0,7.5162773E0,7.809405E0,3.1652834E0,4.927269E0,4.5261257E1,7.127499E1,1.2703401E0,1.0467652E0,4.696995E0,3.11241E0],"tree_param":{"num_deleted":"0","num_feature":"6","num_nodes":"25","size_leaf_vector":"1"}},{"base_weights":[-7.6683024E-3,-4.4752312E-1,1.5044585E-1,1.3232224E-1,-7.18353E-1,4.13338E-1,-6.1930823E-3,-6.121942E-2,2.4822062E-1,1.4800135E-2,-7.8647155E-1,1.92513E-1,7.541148E-1,-1.2648244E-1,4.6741053E-1,-5.220468E-2,3.5411543E-1,-6.258812E-2,7.730387E-2,-2.451979E-1,-8.7325794E-1,-1.3838236E-2,6.6605943E-1,-1.3179143E-1,8.9152324E-1,-2.3745559E-1,6.188264E-1,-9.763572E-2,8.0864716E-1,4.6340104E-2,-3.8373508E-2,-7.566109E-2,7.4149854E-2,-9.062997E-2,-1.3917886E-2,5.4132473E-2,-1.936574E-2,-5.8238547E-2,9.058719E-2,1.34459855E-2,-3.171514E-2,4.115504E-2,1.172431E-1,-3.635813E-2,3.294623E-2,8.9872494E-2,-3.3745605E-2,-5.1012225E-2,6.747546E-2,9.557137E-2,-1.9220738E-2],"categories":[],"categories_nodes":[],"categories_segments":[],"categories_sizes":[],"default_left":[0,0,0,0,0,0,0,0,0,0,0,0,0,0,0,0,0,0,0,0,0,0,0,0,0,0,0,0,0,0,0,0,0,0,0,0,0,0,0,0,0,0,0,0,0,0,0,0,0,0,0],"id":24,"left_children":[1,3,5,7,9,11,13,-1,15,17,19,21,23,25,27,-1,29,-1,-1,31,33,35,37,39,41,43,45,47,49,-1,-1,-1,-1,-1,-1,-1,-1,-1,-1,-1,-1,-1,-1,-1,-1,-1,-1,-1,-1,-1,-1],"loss_changes":[1.13351555E1,6.862176E0,4.9409676E0,1.4086292E0,1.4863205E0,3.2254176E0,4.3964458E0,0E0,1.2708037E0,2.1801176E0,1.0559216E0,2.7962556E0,2.2196903E0,5.2336235E0,3.0933158E0,0E0,1.1696641E0,0E0,0E0,3.1478274E0,4.2955017E-1,2.1857479E0,3.1253195E0,2.0008193E-1,1.5505724E0,3.9990337E0,2.5108855E0,2.5038862E0,1.6342521E0,0E0,0E0,0E0,0E0,0E0,0E0,0E0,0E0,0E0,0E0,0E0,0E0,0E0,0E0,0E0,0E0,0E0,0E0,0E0,0E0,0E0,0E0],"parents":[2147483647,0,0,1,1,2,2,3,3,4,4,5,5,6,6,8,8,9,9,10,10,11,11,12,12,13,13,14,14,16,16,19,19,20,20,21,21,22,22,23,23,24,24,25,25,26,26,27,27,28,28],"right_children":[2,4,6,8,10,12,14,-1,16,18,20,22,24,26,28,-1,30,-1,-1,32,34,36,38,40,42,44,46,48,50,-1,-1,-1,-1,-1,-1,-1,-1,-1,-1,-1,-1,-1,-1,-1,-1,-1,-1,-1,-1,-1,-1],"split_conditions":[2.912781E1,1.7616539E1,3.1875694E1,7.4183617E0,3.3343807E-1,5.1989136E0,4.396793E1,-6.121942E-2,1.7221832E1,2.3080085E-1,4.327071E2,2.1491478E1,1.0822042E-1,9.443874E-1,1.3766884E1,-5.220468E-2,2.839522E3,-6.258812E-2,7.730387E-2,2.2177387E1,3.103866E1,1.5787933E1,1.4436457E-1,2.0119244E1,2.1689518E1,2.7207151E1,6.2511692E1,6.3983977E-1,7.645406E1,4.6340104E-2,-3.8373508E-2,-7.566109E-2,7.4149854E-2,-9.062997E-2,-1.3917886E-2,5.4132473E-2,-1.936574E-2,-5.8238547E-2,9.058719E-2,1.34459855E-2,-3.171514E-2,4.115504E-2,1.172431E-1,-3.635813E-2,3.294623E-2,8.9872494E-2,-3.3745605E-2,-5.1012225E-2,6.747546E-2,9.557137E-2,-1.9220738E-2],"split_indices":[0,1,1,2,3,3,0,0,0,3,5,2,4,4,2,0,5,0,0,2,2,1,4,1,1,2,1,4,1,0,0,0,0,0,0,0,0,0,0,0,0,0,0,0,0,0,0,0,0,0,0],"split_type":[0,0,0,0,0,0,0,0,0,0,0,0,0,0,0,0,0,0,0,0,0,0,0,0,0,0,0,0,0,0,0,0,0,0,0,0,0,0,0,0,0,0,0,0,0,0,0,0,0,0,0],"sum_hessian":[1.6101683E2,4.2091866E1,1.18924965E2,1.3563626E1,2.852824E1,4.3790745E1,7.513422E1,1.2502187E0,1.2313408E1,2.4918163E0,2.6036423E1,2.7521564E1,1.6269182E1,6.050073E1,1.4633489E1,1.0132529E0,1.1300155E1,1.4452211E0,1.0465952E0,4.126344E0,2.1910078E1,1.984482E1,7.6767445E0,2.1900783E0,1.4079103E1,5.3253E1,7.247733E0,5.778641E0,8.854848E0,1.0166341E1,1.1338145E0,2.8713086E0,1.2550354E0,2.0741858E1,1.1682223E0,4.3633347E0,1.5481485E1,1.006819E0,6.6699257E0,1.0116067E0,1.1784716E0,6.1079073E0,7.971196E0,4.385498E1,9.398016E0,5.653248E0,1.594485E0,3.9882917E0,1.7903492E0,7.7597284E0,1.0951195E0],"tree_param":{"num_deleted":"0","num_feature":"6","num_nodes":"51","size_leaf_vector":"1"}},{"base_weights":[-6.7652464E-3,-8.15401E-1,7.113266E-2,2.3153478E-3,-9.283348E-2,1.9878864E-1,-2.055379E-1,8.438191E-2,5.479861E-1,-9.258933E-2,1.927333E-2,-6.3101476E-1,1.564834E-1,1.6406065E-1,8.5933065E-1,-8.006545E-2,9.818424E-2,1.0713479E-2,-7.790155E-2,3.2549197E-4,4.55798E-2,-1.3059695E-2,8.327129E-2,-2.4565568E-2,1.04892924E-1,7.139758E-2,-4.0474865E-3],"categories":[],"categories_nodes":[],"categories_segments":[],"categories_sizes":[],"default_left":[0,0,0,0,0,0,0,0,0,0,0,0,0,0,0,0,0,0,0,0,0,0,0,0,0,0,0],"id":25,"left_children":[1,3,5,-1,-1,7,9,11,13,-1,15,17,19,21,23,-1,25,-1,-1,-1,-1,-1,-1,-1,-1,-1,-1],"loss_changes":[1.0064571E1,1.3509741E0,5.1909666E0,0E0,0E0,3.9603276E0,7.5531235E0,4.056124E0,2.7955618E0,0E0,2.4364805E0,8.725636E-1,3.2318153E0,2.5197396E0,3.0503044E0,0E0,2.9434173E0,0E0,0E0,0E0,0E0,0E0,0E0,0E0,0E0,0E0,0E0],"parents":[2147483647,0,0,1,1,2,2,5,5,6,6,7,7,8,8,10,10,11,11,12,12,13,13,14,14,16,16],"right_children":[2,4,6,-1,-1,8,10,12,14,-1,16,18,20,22,24,-1,26,-1,-1,-1,-1,-1,-1,-1,-1,-1,-1],"split_conditions":[2.1921915E1,7.862218E0,4.6477753E1,2.3153478E-3,-9.283348E-2,3.9558224E1,3.3447742E1,1.3190393E-1,1.1254497E3,-9.258933E-2,4.783722E1,1.2665988E1,2.1491478E1,1.90524E1,9.156851E-1,-8.006545E-2,5.0461613E1,1.0713479E-2,-7.790155E-2,3.2549197E-4,4.55798E-2,-1.3059695E-2,8.327129E-2,-2.4565568E-2,1.04892924E-1,7.139758E-2,-4.0474865E-3],"split_indices":[0,1,1,0,0,0,0,4,5,0,1,1,2,2,2,0,1,0,0,0,0,0,0,0,0,0,0],"split_type":[0,0,0,0,0,0,0,0,0,0,0,0,0,0,0,0,0,0,0,0,0,0,0,0,0,0,0],"sum_hessian":[1.5785706E2,1.3038683E1,1.4481837E2,1.641942E0,1.1396741E1,9.9288216E1,4.5530155E1,7.572143E1,2.356679E1,1.0087753E1,3.54424E1,6.223143E0,6.949828E1,1.123707E1,1.232972E1,2.3085883E0,3.3133812E1,1.0854765E0,5.1376667E0,4.6635162E1,2.2863121E1,8.358418E0,2.8786511E0,1.7624496E0,1.056727E1,5.327039E0,2.7806774E1],"tree_param":{"num_deleted":"0","num_feature":"6","num_nodes":"27","size_leaf_vector":"1"}},{"base_weights":[-7.16216E-3,-8.0004853E-1,6.45983E-2,2.169048E-3,-9.2046276E-2,2.3082867E-1,-1.2668243E-1,9.0336186E-1,1.7326938E-1,-4.523716E-1,1.1897154E-1,4.1175026E-1,1.0825926E-1,-3.927141E-2,3.759591E-1,-8.014536E-1,-1.27899E-2,2.6752463E-1,-3.1680954E-1,4.9530737E-2,1.1552872E-2,-1.6590998E-2,4.200993E-2,1.2930482E-2,7.47047E-2,-2.3305854E-3,-8.518931E-2,9.758243E-2,-1.843238E-2,-1.1176029E-2,4.973136E-2,-4.54366E-2,2.3267044E-2],"categories":[],"categories_nodes":[],"categories_segments":[],"categories_sizes":[],"default_left":[0,0,0,0,0,0,0,0,0,0,0,0,0,0,0,0,0,0,0,0,0,0,0,0,0,0,0,0,0,0,0,0,0],"id":26,"left_children":[1,3,5,-1,-1,7,9,11,13,15,17,19,-1,21,23,25,27,29,31,-1,-1,-1,-1,-1,-1,-1,-1,-1,-1,-1,-1,-1,-1],"loss_changes":[8.946326E0,1.3111372E0,4.616788E0,0E0,0E0,2.8453922E0,5.472664E0,7.202482E-2,3.1454363E0,4.490323E0,2.6354117E0,2.1581352E-2,0E0,2.1860168E0,3.316784E0,6.2113476E-1,2.5536706E0,2.6637995E0,8.974258E-1,0E0,0E0,0E0,0E0,0E0,0E0,0E0,0E0,0E0,0E0,0E0,0E0,0E0,0E0],"parents":[2147483647,0,0,1,1,2,2,5,5,6,6,7,7,8,8,9,9,10,10,11,11,13,13,14,14,15,15,16,16,17,17,18,18],"right_children":[2,4,6,-1,-1,8,10,12,14,16,18,20,-1,22,24,26,28,30,32,-1,-1,-1,-1,-1,-1,-1,-1,-1,-1,-1,-1,-1,-1],"split_conditions":[2.1921915E1,7.862218E0,3.6986866E1,2.169048E-3,-9.2046276E-2,6.0499797E0,3.727669E1,1.5108756E0,1.5565077E1,6.9736266E-1,2.298563E3,9.763273E2,1.0825926E-1,4.0334335E1,2.899627E1,3.2121387E-1,2.1603798E2,1.5061315E1,8.8578236E-1,4.9530737E-2,1.1552872E-2,-1.6590998E-2,4.200993E-2,1.2930482E-2,7.47047E-2,-2.3305854E-3,-8.518931E-2,9.758243E-2,-1.843238E-2,-1.1176029E-2,4.973136E-2,-4.54366E-2,2.3267044E-2],"split_indices":[0,1,1,0,0,1,0,3,2,4,5,5,0,0,1,3,5,2,4,0,0,0,0,0,0,0,0,0,0,0,0,0,0],"split_type":[0,0,0,0,0,0,0,0,0,0,0,0,0,0,0,0,0,0,0,0,0,0,0,0,0,0,0,0,0,0,0,0,0],"sum_hessian":[1.5532645E2,1.204886E1,1.4327759E2,1.6447192E0,1.040414E1,7.654781E1,6.6729774E1,4.876417E0,7.1671394E1,2.8329239E1,3.840053E1,2.1837993E0,2.6926177E0,3.537908E1,3.6292316E1,1.5331177E1,1.2998061E1,2.8926056E1,9.474479E0,1.1791146E0,1.0046847E0,2.8234322E1,7.1447597E0,2.2611425E1,1.368089E1,1.0222739E0,1.4308904E1,1.2285653E0,1.1769496E1,1.110689E1,1.7819164E1,7.715967E0,1.7585114E0],"tree_param":{"num_deleted":"0","num_feature":"6","num_nodes":"33","size_leaf_vector":"1"}},{"base_weights":[-5.88956E-3,-7.840886E-1,6.0339328E-2,-9.1847174E-2,1.7981482E-3,1.2096963E-1,-4.2917204E-1,7.598382E-2,8.405364E-1,-5.7532525E-1,6.409344E-2,-3.710995E-1,1.482348E-1,2.0478378E-1,1.075929E-1,-2.735112E-1,-9.4266005E-2,-9.516055E-3,-1.04999065E-1,5.6356747E-2,7.0169964E-3,4.809074E-2,-1.9680785E-2,-6.244846E-2,5.12105E-2],"categories":[],"categories_nodes":[],"categories_segments":[],"categories_sizes":[],"default_left":[0,0,0,0,0,0,0,0,0,0,0,0,0,0,0,0,0,0,0,0,0,0,0,0,0],"id":27,"left_children":[1,3,5,-1,-1,7,9,11,13,15,-1,17,19,21,-1,23,-1,-1,-1,-1,-1,-1,-1,-1,-1],"loss_changes":[7.9853563E0,1.3262372E0,4.2921314E0,0E0,0E0,4.0763884E0,2.8656905E0,3.9789724E0,8.9103127E-1,1.3579087E0,0E0,3.1194913E0,3.3742938E0,4.5412076E-1,0E0,2.9141715E0,0E0,0E0,0E0,0E0,0E0,0E0,0E0,0E0,0E0],"parents":[2147483647,0,0,1,1,2,2,5,5,6,6,7,7,8,8,9,9,11,11,12,12,13,13,15,15],"right_children":[2,4,6,-1,-1,8,10,12,14,16,-1,18,20,22,-1,24,-1,-1,-1,-1,-1,-1,-1,-1,-1],"split_conditions":[2.1921915E1,8.8578236E-1,6.3019314E1,-9.1847174E-2,1.7981482E-3,4.684097E1,3.3685272E1,5.092631E0,4.3596E-1,1.8712069E1,6.409344E-2,3.3150911E0,1.5104793E1,3.609701E1,1.075929E-1,1.5565077E1,-9.4266005E-2,-9.516055E-3,-1.04999065E-1,5.6356747E-2,7.0169964E-3,4.809074E-2,-1.9680785E-2,-6.244846E-2,5.12105E-2],"split_indices":[0,4,1,0,0,0,2,2,4,2,0,2,1,1,0,2,0,0,0,0,0,0,0,0,0],"split_type":[0,0,0,0,0,0,0,0,0,0,0,0,0,0,0,0,0,0,0,0,0,0,0,0,0],"sum_hessian":[1.530194E2,1.1151271E1,1.4186812E2,9.426738E0,1.7245331E0,1.2690295E2,1.4965173E1,1.204766E2,6.4263477E0,1.3573671E1,1.3915012E0,1.6185534E1,1.0429107E2,2.2417517E0,4.184596E0,8.409081E0,5.1645894E0,1.2318701E1,3.8668325E0,1.5516824E1,8.877425E1,1.2113538E0,1.0303979E0,5.9541655E0,2.4549162E0],"tree_param":{"num_deleted":"0","num_feature":"6","num_nodes":"25","size_leaf_vector":"1"}},{"base_weights":[-6.1285086E-3,-3.931232E-1,1.2082955E-1,-1.0949397E-1,-8.654569E-1,6.0747653E-2,6.4615244E-1,-7.7752635E-2,9.007327E-3,-1.2113854E-3,-9.30133E-2,1.1793166E-1,-6.157301E-1,-1.6383758E-2,8.153235E-1,1.8145645E-1,-5.125518E-1,-5.6694698E-2,3.481657E-1,-7.7921855E-1,-6.2534423E-3,1.1442136E-1,1.6081281E-1,-9.241668E-3,1.073305E-1,1.6432116E-2,-6.905212E-2,-1.3055618E-2,6.737393E-2,4.4494808E-2,-2.1797832E-2,-1.38996905E-2,-8.827134E-2,-2.6505942E-2,6.538002E-2],"categories":[],"categories_nodes":[],"categories_segments":[],"categories_sizes":[],"default_left":[0,0,0,0,0,0,0,0,0,0,0,0,0,0,0,0,0,0,0,0,0,0,0,0,0,0,0,0,0,0,0,0,0,0,0],"id":28,"left_children":[1,3,5,7,9,11,13,-1,15,-1,-1,17,19,-1,21,23,25,27,29,31,-1,-1,33,-1,-1,-1,-1,-1,-1,-1,-1,-1,-1,-1,-1],"loss_changes":[7.528822E0,4.9757977E0,3.6036913E0,1.9697149E0,7.6448345E-1,4.1219554E0,1.7425752E0,0E0,2.0759208E0,0E0,0E0,3.9340305E0,7.0371556E-1,0E0,1.9429555E0,4.3264494E0,8.048792E-1,3.1213698E0,2.405583E0,2.9703188E-1,0E0,0E0,1.1113665E0,0E0,0E0,0E0,0E0,0E0,0E0,0E0,0E0,0E0,0E0,0E0,0E0],"parents":[2147483647,0,0,1,1,2,2,3,3,4,4,5,5,6,6,8,8,11,11,12,12,14,14,15,15,16,16,17,17,18,18,19,19,22,22],"right_children":[2,4,6,8,10,12,14,-1,16,-1,-1,18,20,-1,22,24,26,28,30,32,-1,-1,34,-1,-1,-1,-1,-1,-1,-1,-1,-1,-1,-1,-1],"split_conditions":[2.912781E1,3.67795E1,3.0018791E1,7.231379E0,1.17307304E2,6.7157974E1,2.7686092E-1,-7.7752635E-2,6.6234627E0,-1.2113854E-3,-9.30133E-2,6.8691E-1,2.247116E3,-1.6383758E-2,4.8324337E1,4.6396003E0,1.1358697E1,4.684097E1,2.3786549E1,3.750765E2,-6.2534423E-3,1.1442136E-1,6.743405E1,-9.241668E-3,1.073305E-1,1.6432116E-2,-6.905212E-2,-1.3055618E-2,6.737393E-2,4.4494808E-2,-2.1797832E-2,-1.38996905E-2,-8.827134E-2,-2.6505942E-2,6.538002E-2],"split_indices":[0,1,2,2,5,1,4,0,3,0,0,4,5,0,1,3,1,0,2,5,0,0,1,0,0,0,0,0,0,0,0,0,0,0,0],"split_type":[0,0,0,0,0,0,0,0,0,0,0,0,0,0,0,0,0,0,0,0,0,0,0,0,0,0,0,0,0,0,0,0,0,0,0],"sum_hessian":[1.5126953E2,3.6849148E1,1.1442039E2,2.3793388E1,1.30557575E1,1.0367821E2,1.074218E1,2.7468913E0,2.1046497E1,1.0034491E0,1.2052308E1,9.63585E1,7.319707E0,1.8613886E0,8.880791E0,1.630686E1,4.7396374E0,5.5225323E1,4.113318E1,5.334578E0,1.9851286E0,5.4127164E0,3.4680743E0,1.31615305E1,3.1453295E0,1.0027095E0,3.7369277E0,5.0899616E1,4.3257065E0,3.5310856E1,5.8223224E0,1.0684087E0,4.2661695E0,2.1087496E0,1.3593247E0],"tree_param":{"num_deleted":"0","num_feature":"6","num_nodes":"35","size_leaf_vector":"1"}},{"base_weights":[-6.25497E-3,-7.549918E-1,5.143429E-2,-9.039198E-2,3.8460342E-3,-5.400211E-1,9.7345084E-2,1.7369976E-2,-6.5077436E-1,3.5759997E-1,-1.2178928E-2,5.2852556E-3,-7.577048E-1,1.5139148E-1,9.480641E-1,-3.3630538E-1,1.4328048E-1,-9.262258E-2,-1.894526E-2,-1.216326E-2,4.2006005E-2,1.16373874E-1,4.5924883E-2,-5.643011E-2,1.020928E-2,5.6296075E-3,8.1295654E-2],"categories":[],"categories_nodes":[],"categories_segments":[],"categories_sizes":[],"default_left":[0,0,0,0,0,0,0,0,0,0,0,0,0,0,0,0,0,0,0,0,0,0,0,0,0,0,0],"id":29,"left_children":[1,3,5,-1,-1,7,9,-1,11,13,15,-1,17,19,21,23,25,-1,-1,-1,-1,-1,-1,-1,-1,-1,-1],"loss_changes":[6.5304985E0,1.3127556E0,3.867067E0,0E0,0E0,9.249668E-1,3.7442162E0,0E0,7.249012E-1,4.592152E0,4.7499413E0,0E0,5.8744144E-1,2.252915E0,5.068569E-1,3.1107259E0,3.6686049E0,0E0,0E0,0E0,0E0,0E0,0E0,0E0,0E0,0E0,0E0],"parents":[2147483647,0,0,1,1,2,2,5,5,6,6,8,8,9,9,10,10,12,12,13,13,14,14,15,15,16,16],"right_children":[2,4,6,-1,-1,8,10,-1,12,14,16,-1,18,20,22,24,26,-1,-1,-1,-1,-1,-1,-1,-1,-1,-1],"split_conditions":[2.1921915E1,8.8578236E-1,1.11076966E-1,-9.039198E-2,3.8460342E-3,8.6448824E-1,2.604084E1,1.7369976E-2,1.3834093E1,3.580056E1,1.2163137E1,5.2852556E-3,4.073987E1,6.488984E-1,6.100683E-1,4.1122208E1,1.0639327E1,-9.262258E-2,-1.894526E-2,-1.216326E-2,4.2006005E-2,1.16373874E-1,4.5924883E-2,-5.643011E-2,1.020928E-2,5.6296075E-3,8.1295654E-2],"split_indices":[0,4,4,0,0,3,1,0,1,0,2,0,0,4,4,0,3,0,0,0,0,0,0,0,0,0,0],"split_type":[0,0,0,0,0,0,0,0,0,0,0,0,0,0,0,0,0,0,0,0,0,0,0,0,0,0,0],"sum_hessian":[1.4929063E2,9.815113E0,1.3947552E2,8.146772E0,1.6683414E0,9.27147E0,1.3020406E2,1.1691071E0,8.102364E0,3.7893982E1,9.2310074E1,1.1355983E0,6.966765E0,2.9016802E1,8.877179E0,2.954554E1,6.2764534E1,4.887401E0,2.079364E0,1.4663183E1,1.4353619E1,5.2014623E0,3.6757169E0,1.9248089E1,1.0297452E1,5.650867E1,6.255862E0],"tree_param":{"num_deleted":"0","num_feature":"6","num_nodes":"27","size_leaf_vector":"1"}},{"base_weights":[-5.7674423E-3,-3.619793E-1,1.0611134E-1,-9.7455986E-2,-8.467892E-1,8.553017E-1,6.4851254E-2,-7.537868E-2,1.2192986E-2,-3.3959975E-3,-9.1839805E-2,9.973182E-2,3.3300135E-2,3.7623395E-3,5.9194314E-1,1.703749E-1,-4.8456994E-1,-4.3495756E-2,7.1795857E-1,-1.5049646E-2,7.520255E-1,-8.537116E-3,9.633143E-2,-4.8391735E-3,-8.259889E-2,9.4536087E-4,-7.752707E-2,1.5361333E-1,1.4581963E-2,1.0814055E-1,1.4314611E-2],"categories":[],"categories_nodes":[],"categories_segments":[],"categories_sizes":[],"default_left":[0,0,0,0,0,0,0,0,0,0,0,0,0,0,0,0,0,0,0,0,0,0,0,0,0,0,0,0,0,0,0],"id":30,"left_children":[1,3,5,7,9,11,13,-1,15,-1,-1,-1,-1,17,19,21,23,25,27,-1,29,-1,-1,-1,-1,-1,-1,-1,-1,-1,-1],"loss_changes":[5.955594E0,4.497603E0,3.4611237E0,1.7534158E0,6.950731E-1,1.0227394E-1,3.5045037E0,0E0,1.7917606E0,0E0,0E0,0E0,0E0,3.3591907E0,1.456759E0,3.5779293E0,7.8110015E-1,3.6272738E0,2.6673443E0,0E0,1.7436976E0,0E0,0E0,0E0,0E0,0E0,0E0,0E0,0E0,0E0,0E0],"parents":[2147483647,0,0,1,1,2,2,3,3,4,4,5,5,6,6,8,8,13,13,14,14,15,15,16,16,17,17,18,18,20,20],"right_children":[2,4,6,8,10,12,14,-1,16,-1,-1,-1,-1,18,20,22,24,26,28,-1,30,-1,-1,-1,-1,-1,-1,-1,-1,-1,-1],"split_conditions":[2.912781E1,3.67795E1,1.0593828E1,7.231379E0,1.3730235E2,7.862218E0,3.0018791E1,-7.537868E-2,6.6234627E0,-3.3959975E-3,-9.1839805E-2,9.973182E-2,3.3300135E-2,1.4697668E1,2.7686092E-1,4.6396003E0,1.6564775E1,6.991387E1,3.331617E1,-1.5049646E-2,4.8324337E1,-8.537116E-3,9.633143E-2,-4.8391735E-3,-8.259889E-2,9.4536087E-4,-7.752707E-2,1.5361333E-1,1.4581963E-2,1.0814055E-1,1.4314611E-2],"split_indices":[0,1,1,2,5,1,2,0,3,0,0,0,0,3,4,3,1,1,0,0,1,0,0,0,0,0,0,0,0,0,0],"split_type":[0,0,0,0,0,0,0,0,0,0,0,0,0,0,0,0,0,0,0,0,0,0,0,0,0,0,0,0,0,0,0],"sum_hessian":[1.4747693E2,3.47143E1,1.12762634E2,2.3236794E1,1.1477506E1,4.8561606E0,1.0790647E2,2.4853828E0,2.075141E1,1.0486432E0,1.0428863E1,3.102972E0,1.7531886E0,9.760175E1,1.0304715E1,1.6237886E1,4.5135245E0,9.242512E1,5.1766367E0,1.8383918E0,8.466323E0,1.2952623E1,3.2852623E0,2.483051E0,2.0304737E0,8.71092E1,5.3159184E0,1.436914E0,3.7397227E0,4.990564E0,3.4757593E0],"tree_param":{"num_deleted":"0","num_feature":"6","num_nodes":"31","size_leaf_vector":"1"}},{"base_weights":[-4.585792E-3,-7.242272E-1,4.59108E-2,7.698074E-3,-8.833757E-2,-5.137751E-1,8.814102E-2,1.7528482E-2,-6.264419E-1,3.1937137E-1,-8.611714E-3,3.2538732E-3,-7.299952E-1,1.2718336E-1,8.8572824E-1,-1.0163063E-1,4.371478E-1,-9.064468E-2,-1.756229E-2,-1.24362605E-2,3.767327E-2,1.0906297E-1,4.2396978E-2,-4.0508952E-2,3.8384625E-3,-4.9185928E-2,5.450284E-2],"categories":[],"categories_nodes":[],"categories_segments":[],"categories_sizes":[],"default_left":[0,0,0,0,0,0,0,0,0,0,0,0,0,0,0,0,0,0,0,0,0,0,0,0,0,0,0],"id":31,"left_children":[1,3,5,-1,-1,7,9,-1,11,13,15,-1,17,19,21,23,25,-1,-1,-1,-1,-1,-1,-1,-1,-1,-1],"loss_changes":[5.3699155E0,1.3034205E0,3.31096E0,0E0,0E0,8.7374187E-1,2.8960786E0,0E0,6.157992E-1,4.0427866E0,3.8653524E0,0E0,5.784135E-1,1.909448E0,4.369197E-1,3.2894049E0,1.8814657E0,0E0,0E0,0E0,0E0,0E0,0E0,0E0,0E0,0E0,0E0],"parents":[2147483647,0,0,1,1,2,2,5,5,6,6,8,8,9,9,10,10,12,12,13,13,14,14,15,15,16,16],"right_children":[2,4,6,-1,-1,8,10,-1,12,14,16,-1,18,20,22,24,26,-1,-1,-1,-1,-1,-1,-1,-1,-1,-1],"split_conditions":[2.1921915E1,7.862218E0,1.11076966E-1,7.698074E-3,-8.833757E-2,8.6448824E-1,2.604084E1,1.7528482E-2,1.3834093E1,3.580056E1,4.396793E1,3.2538732E-3,4.073987E1,6.488984E-1,6.100683E-1,5.2609086E-1,2.484271E2,-9.064468E-2,-1.756229E-2,-1.24362605E-2,3.767327E-2,1.0906297E-1,4.2396978E-2,-4.0508952E-2,3.8384625E-3,-4.9185928E-2,5.450284E-2],"split_indices":[0,1,4,0,0,3,1,0,1,0,0,0,0,4,4,4,5,0,0,0,0,0,0,0,0,0,0],"split_type":[0,0,0,0,0,0,0,0,0,0,0,0,0,0,0,0,0,0,0,0,0,0,0,0,0,0,0],"sum_hessian":[1.4585603E2,8.688705E0,1.3716733E2,1.5254358E0,7.1632695E0,8.840202E0,1.2832713E2,1.1642112E0,7.6759915E0,3.717686E1,9.115027E1,1.1355408E0,6.5404506E0,2.8671885E1,8.504976E0,7.605209E1,1.5098173E1,4.4795604E0,2.0608902E0,1.45286455E1,1.4143239E1,4.94761E0,3.5573661E0,2.3413721E1,5.2638374E1,1.2005363E0,1.3897637E1],"tree_param":{"num_deleted":"0","num_feature":"6","num_nodes":"27","size_leaf_vector":"1"}},{"base_weights":[-4.622493E-3,-7.05861E-1,4.199474E-2,-8.8011034E-2,9.116589E-3,7.885602E-1,1.12965545E-2,3.034866E-1,1.0007272E-1,-5.4460496E-2,3.7595227E-1,-2.571608E-2,7.29427E-2,-2.0306624E-1,1.3423535E-1,-6.577735E-2,5.71244E-1,-3.789976E-2,9.042316E-3,2.1564921E-2,-5.526322E-2,4.726783E-2,-8.10304E-2,-2.9481237E-3,6.7017436E-2],"categories":[],"categories_nodes":[],"categories_segments":[],"categories_sizes":[],"default_left":[0,0,0,0,0,0,0,0,0,0,0,0,0,0,0,0,0,0,0,0,0,0,0,0,0],"id":32,"left_children":[1,3,5,-1,-1,7,9,11,-1,13,15,-1,-1,17,19,21,23,-1,-1,-1,-1,-1,-1,-1,-1],"loss_changes":[4.771932E0,1.3439159E0,3.1302085E0,0E0,0E0,2.5154233E-1,3.1994555E0,9.223709E-1,0E0,3.2013736E0,1.7957609E0,0E0,0E0,3.324492E0,2.941615E0,3.2473783E0,8.6580324E-1,0E0,0E0,0E0,0E0,0E0,0E0,0E0,0E0],"parents":[2147483647,0,0,1,1,2,2,5,5,6,6,7,7,9,9,10,10,13,13,14,14,15,15,16,16],"right_children":[2,4,6,-1,-1,8,10,12,-1,14,16,-1,-1,18,20,22,24,-1,-1,-1,-1,-1,-1,-1,-1],"split_conditions":[2.1921915E1,8.8578236E-1,6.0499797E0,-8.8011034E-2,9.116589E-3,3.8538176E-1,2.7082747E1,2.7112837E1,1.0007272E-1,6.8691E-1,3.1931057E1,-2.571608E-2,7.29427E-2,3.9558224E1,2.3786549E1,3.209291E1,2.804048E-1,-3.789976E-2,9.042316E-3,2.1564921E-2,-5.526322E-2,4.726783E-2,-8.10304E-2,-2.9481237E-3,6.7017436E-2],"split_indices":[0,4,1,0,0,4,2,0,0,4,0,0,0,0,2,1,4,0,0,0,0,0,0,0,0],"split_type":[0,0,0,0,0,0,0,0,0,0,0,0,0,0,0,0,0,0,0,0,0,0,0,0,0],"sum_hessian":[1.4406943E2,8.098988E0,1.3597043E2,6.5604687E0,1.5385187E0,4.395141E0,1.3157529E2,2.0769832E0,2.3181577E0,1.1219434E2,1.9380949E1,1.0677719E0,1.0092114E0,6.2722015E1,4.947233E1,6.144933E0,1.3236016E1,3.9032654E1,2.368936E1,4.4843147E1,4.6291833E0,3.7778502E0,2.367083E0,1.9708169E0,1.12652E1],"tree_param":{"num_deleted":"0","num_feature":"6","num_nodes":"25","size_leaf_vector":"1"}},{"base_weights":[-4.2747217E-3,-3.2236105E-1,8.991131E-2,-8.367302E-2,-8.1786835E-1,6.0703444E-1,3.9033614E-2,-7.29829E-2,1.934386E-2,-1.1154235E-3,-9.0092026E-2,1.3281575E-1,8.966241E-1,-2.373509E-1,1.7434521E-1,1.1116721E-1,-7.414641E-2,-3.8467306E-1,7.777971E-2,8.237531E-3,1.0589706E-1,8.1313394E-2,-2.9638705E-1,8.412564E-2,8.018391E-1,-6.946822E-3,8.365212E-2,1.7412776E-2,-7.705988E-2,-4.738053E-2,-4.4528124E-4,1.6376622E-2,-4.505129E-2,-2.3241153E-3,1.02030315E-1],"categories":[],"categories_nodes":[],"categories_segments":[],"categories_sizes":[],"default_left":[0,0,0,0,0,0,0,0,0,0,0,0,0,0,0,0,0,0,0,0,0,0,0,0,0,0,0,0,0,0,0,0,0,0,0],"id":33,"left_children":[1,3,5,7,9,11,13,-1,15,-1,-1,17,19,21,23,25,-1,27,-1,-1,-1,-1,29,31,33,-1,-1,-1,-1,-1,-1,-1,-1,-1,-1],"loss_changes":[4.3259315E0,3.8327153E0,2.908337E0,1.5700909E0,7.007723E-1,1.2423191E0,3.87573E0,0E0,1.5589274E0,0E0,0E0,1.945511E0,7.0339775E-1,2.3570848E0,3.8618207E0,2.64305E0,0E0,8.6866367E-1,0E0,0E0,0E0,0E0,1.709105E0,2.7051282E0,1.5752211E0,0E0,0E0,0E0,0E0,0E0,0E0,0E0,0E0,0E0,0E0],"parents":[2147483647,0,0,1,1,2,2,3,3,4,4,5,5,6,6,8,8,11,11,12,12,13,13,14,14,15,15,17,17,22,22,23,23,24,24],"right_children":[2,4,6,8,10,12,14,-1,16,-1,-1,18,20,22,24,26,-1,28,-1,-1,-1,-1,30,32,34,-1,-1,-1,-1,-1,-1,-1,-1,-1,-1],"split_conditions":[2.912781E1,3.67795E1,1.5787933E1,7.231379E0,1.4998085E2,3.308919E1,1.2377665E1,-7.29829E-2,9.5183855E-1,-1.1154235E-3,-9.0092026E-2,6.138039E-1,9.402887E-1,2.9794415E1,1.0639327E1,8.428014E-1,-7.414641E-2,3.4019194E0,7.777971E-2,8.237531E-3,1.0589706E-1,8.1313394E-2,4.073987E1,6.3019314E1,4.5881292E-1,-6.946822E-3,8.365212E-2,1.7412776E-2,-7.705988E-2,-4.738053E-2,-4.4528124E-4,1.6376622E-2,-4.505129E-2,-2.3241153E-3,1.02030315E-1],"split_indices":[0,1,1,2,5,0,2,0,4,0,0,4,3,0,3,4,0,3,0,0,0,0,0,1,4,0,0,0,0,0,0,0,0,0,0],"split_type":[0,0,0,0,0,0,0,0,0,0,0,0,0,0,0,0,0,0,0,0,0,0,0,0,0,0,0,0,0,0,0,0,0,0,0],"sum_hessian":[1.4242621E2,3.1984644E1,1.1044157E2,2.2375252E1,9.609393E0,8.913466E0,1.015281E2,2.2400925E0,2.0135159E1,1.0028307E0,8.606562E0,3.932469E0,4.980997E0,3.312125E1,6.8406845E1,1.8728647E1,1.4065129E0,2.4058058E0,1.5266631E0,1.0786144E0,3.902383E0,1.082677E0,3.2038574E1,6.079933E1,7.607516E0,1.5718488E1,3.0101583E0,1.2069739E0,1.1988319E0,1.9540293E1,1.249828E1,5.352052E1,7.2788115E0,1.7796956E0,5.8278203E0],"tree_param":{"num_deleted":"0","num_feature":"6","num_nodes":"35","size_leaf_vector":"1"}},{"base_weights":[-3.7702797E-3,-6.7604405E-1,3.7363622E-2,-8.631707E-2,9.756895E-3,7.4921507E-1,9.0119615E-3,2.8313408E-2,9.551874E-2,-5.3234833E-1,4.860506E-2,2.26925E-2,-6.640536E-1,-7.535956E-2,2.0605521E-1,-8.054209E-2,-1.7629761E-2,4.330959E-3,-5.3478446E-2,-1.4069728E-2,3.3102747E-2],"categories":[],"categories_nodes":[],"categories_segments":[],"categories_sizes":[],"default_left":[0,0,0,0,0,0,0,0,0,0,0,0,0,0,0,0,0,0,0,0,0],"id":34,"left_children":[1,3,5,-1,-1,7,9,-1,-1,11,13,-1,15,17,19,-1,-1,-1,-1,-1,-1],"loss_changes":[3.9457967E0,1.275172E0,2.7087204E0,0E0,0E0,2.2312331E-1,2.8210297E0,0E0,0E0,1.0478067E0,2.4052563E0,0E0,4.0271258E-1,3.7977858E0,2.3953564E0,0E0,0E0,0E0,0E0,0E0,0E0],"parents":[2147483647,0,0,1,1,2,2,5,5,6,6,9,9,10,10,12,12,13,13,14,14],"right_children":[2,4,6,-1,-1,8,10,-1,-1,12,14,-1,16,18,20,-1,-1,-1,-1,-1,-1],"split_conditions":[2.1921915E1,8.8578236E-1,6.0499797E0,-8.631707E-2,9.756895E-3,3.8538176E-1,1.11076966E-1,2.8313408E-2,9.551874E-2,8.6448824E-1,3.7024513E1,2.26925E-2,4.073987E1,4.4977642E1,1.4542519E0,-8.054209E-2,-1.7629761E-2,4.330959E-3,-5.3478446E-2,-1.4069728E-2,3.3102747E-2],"split_indices":[0,4,1,0,0,4,4,0,0,3,0,0,0,1,3,0,0,0,0,0,0],"split_type":[0,0,0,0,0,0,0,0,0,0,0,0,0,0,0,0,0,0,0,0,0],"sum_hessian":[1.4077496E2,7.226883E0,1.3354808E2,5.72606E0,1.5008229E0,4.1413584E0,1.2940672E2,1.9970312E0,2.1443272E0,7.971135E0,1.2143559E2,1.07143E0,6.899705E0,6.8234314E1,5.3201283E1,4.844373E0,2.0553322E0,5.4947212E1,1.3287098E1,1.4061078E1,3.9140205E1],"tree_param":{"num_deleted":"0","num_feature":"6","num_nodes":"21","size_leaf_vector":"1"}},{"base_weights":[-4.168901E-3,-6.561663E-1,3.3757128E-2,1.19600175E-2,-8.4733106E-2,-3.088906E-1,8.761419E-2,-3.3575125E-2,-1.0386979E-1,-8.277263E-2,2.2807778E-1,-2.9200342E-1,6.1744994E-1,6.2471412E-2,-7.4506295E-1,6.379358E-1,8.662837E-2,-9.1572426E-2,-7.859939E-4,-3.3429597E-2,1.0521646E-1,1.238994E-1,-2.869021E-4,-9.02794E-2,9.598455E-3,2.461351E-2,8.933983E-2,-1.6439817E-3,5.4905623E-2],"categories":[],"categories_nodes":[],"categories_segments":[],"categories_sizes":[],"default_left":[0,0,0,0,0,0,0,0,0,0,0,0,0,0,0,0,0,0,0,0,0,0,0,0,0,0,0,0,0],"id":35,"left_children":[1,3,5,-1,-1,7,9,11,-1,13,15,17,19,21,23,25,27,-1,-1,-1,-1,-1,-1,-1,-1,-1,-1,-1,-1],"loss_changes":[3.4980373E0,1.2545257E0,2.4960353E0,0E0,0E0,3.6609173E0,2.804623E0,2.6011217E0,0E0,5.176542E0,3.6589718E0,1.938579E0,2.176225E0,3.43681E0,1.369381E0,1.4096355E0,2.334267E0,0E0,0E0,0E0,0E0,0E0,0E0,0E0,0E0,0E0,0E0,0E0,0E0],